-0.09416779517631903,-0.07076939685704574,0.16684051118945772,-0.259918775799059,0.03094771961471326,0.14493437391293063,0.05548342425272582,-0.01577731274466795,-0.035665310883284104,-0.14124008713782985,-0.06927783983049429,0.07925256807589637,-0.19562026460904497,-0.0657235073819674,0.10949177745400258,-0.02069371828796258,0.06368763528267579,0.25622968889188985,0.0015395484527219146,-0.034939000653895456
-0.06578015734864201,0.14357247065808096,0.052470150362338874,-0.08948349548754236,0.09864534234033741,0.1509457319227988,0.18914485587668428,0.0627960084961614,-0.07608928894653644,0.04186180159392372,-0.11875429476642044,-0.05821821784248315,-0.1390552425142106,0.10628109992857136,0.11075324708654721,0.0022268142785595115,-0.23575606656303194,-0.06030946169668308,-0.005857504253824503,-0.2055838699339649
-0.0365150520340073,0.026506584559282516,-0.001390372765263003,-0.04104671554574306,0.014393429489050575,0.06679882983584819,0.0858935737927896,0.1049052846079682,-0.12537147359702774,0.021803182152658907,0.08616214433560336,-0.07739531237233561,0.35344270397255473,-0.047947287053309647,-0.06252353194074091,-0.03365401176150058,-0.04064991491369416,0.048472252958761564,0.030454356900337834,0.18413390969951263
-0.1442160223592821,0.11529222137849093,-0.06078532859678181,0.03816576747234036,-0.2575303274427118,0.03368226619085365,-0.019517371212728236,-0.013996747843401262,0.029982851637147076,0.07111030574434632,-0.14124068038092355,0.1022204874921032,0.18752706966380853,-0.02532429122857115,0.009056591778915017,-0.0709356279672037,-0.002273454451369234,0.15694256505295107,0.11999469438782989,-0.024137088797077884
-0.06073466093233735,0.18382881089135825,0.18730321531318703,0.08177947251422474,-0.060344021334941635,0.1988875648893637,0.12629050415204693,0.044710508400581626,0.19493662386596003,0.19840780915614867,-0.020651761293985844,-0.10416481501655062,-0.2610750691232338,-0.03581404793304046,-0.0007315726294203175,0.015136533870662862,-0.022718507766810777,0.1253227466089935,0.07968070241716421,-0.04010454679228118
0.0064562952978159185,-0.18986012464618374,0.019437449248076055,0.07545693021101785,-0.07153898996256769,0.052986756291221265,0.045939765712230886,0.1512941587922714,0.022302091741836907,0.06926638371360704,0.04102139533795501,-0.01639400334813453,-0.074730533422204,-0.0029359293871329233,-0.05937986165423148,0.12366003537761545,-0.03609168277577652,-0.01495359110074836,-0.1321153026143755,-0.23258480770367865
0.06864929689293238,-0.15360778784806306,-0.030341940742213226,0.14735890879900349,-0.23266872856209325,-0.08087881225729811,0.10496560493473191,-0.055786461023669014,0.043657904840163825,-0.0638817060995025,0.05770345882155095,0.02595787899417312,-0.001454404303435896,-0.09364180945771071,-0.06132356697299967,0.07887869171325101,-0.07067356897794966,0.062207886651877244,-0.09729898939878379,0.037389033443643076
0.06949561950409126,0.08709948697339778,-0.062327566002755776,0.21856619101677177,-0.052501772328126445,-0.09189527068915515,0.10911445302397715,0.1851544492293969,0.025047572445346646,0.09330416427518688,-0.03606267442897323,-0.06476381967403803,-0.029295619137455632,0.00980848132259914,-0.21078281292622025,-0.08974325934978306,-0.1241565166072291,0.1356341167213464,-0.1189070060511551,0.027510207694692132
-0.03400187246330637,0.052311071479333504,-0.03101744809317002,0.0632555049392518,-0.16581821411212055,0.13096867566603956,-0.007853335793147495,-0.026183406201761933,-0.0070697150154212145,-0.013913152329764828,-0.013365023298320518,0.17762164562562455,0.022365650119250673,0.21076574408324134,-0.11258135047802563,0.3371259850291626,0.03174659620619658,-0.028874193726380566,-0.003743946532239011,-0.05832644071975371
-0.19050881316865226,-0.2180412658146172,0.042425700279855205,0.039660336691397256,0.169237850328274,0.28221477763672037,0.05115777428514549,-0.02474595098507505,-0.07355594356021336,-0.08556661084965439,-0.05962380322094323,-0.05053399315353934,-0.10062511176736222,0.05187731902077585,-0.007684163793611611,0.001386541865349552,0.0807685558953599,-0.037089360312120255,-0.12149778735599953,0.001231621847558097
0.10528525179404709,-0.0873550896832081,0.03774720796185735,-0.009241326447804744,-0.09526328864962819,-0.055516409403403535,-0.14267763356773638,-0.049652389581767875,-0.0718319996005923,-0.2856978551795086,-0.09908921133447578,-0.1079534523463443,0.05113275656292724,-0.00507330592062747,0.13186285476403037,0.08860134689642424,0.03180004265151207,0.036226906978915015,-0.21482963860963797,0.1800325633134318
0.0038292801218697764,-0.14562848787396085,-0.15604622945552818,0.007827457746105467,0.12413634005853405,-0.019636148950637228,-0.06261895289927215,0.1297638069229782,-0.005059168056569737,-0.07381351109305867,-0.13697768805288776,-0.04025080330964108,-0.047820217881571314,-0.0241031600628201,-0.007703356956654504,-0.027472856331524395,-0.058116914468680836,0.07270519116376652,0.02427077877600737,-0.09328512986677323
-0.05080445362537482,0.04019744654449268,0.11048570356000131,-0.00304670156430279,0.0010290701822447035,-0.129357308027573,-0.04856616836038879,-0.05679139108451487,-0.027385471558389714,0.032864338297683454,-0.1100213904598489,-0.004748464793650171,0.03548098971682384,0.09028814631365858,0.1455246942926835,0.013173518950479768,0.13161897412393497,-0.06025541765348086,-0.043314641655892994,0.1358320111884614
-0.0242246163572927,0.09945895947954315,0.05143542744923304,0.06217221439019118,-0.06415947870869325,0.00844761960401667,-0.09554156876398401,0.15097192895342862,0.17119537614529431,0.03184644918238007,0.08867822035941074,0.08599097552533484,-0.05543091730541707,0.06821170871272288,-0.028985832990747504,0.08230950542598356,0.014915015342238519,-0.16544109043315344,-0.11882798515166183,-0.10705761059821349
-0.1751978108418212,-0.09498699892953633,0.025790258736247518,-0.06618489541794513,-0.11804478479801603,0.0884391442795532,-0.036069464638529065,0.033940077773678246,0.0771016905111769,0.05307093307676374,-0.0004383547454385048,-0.14367508166281034,0.07335434432399601,0.051960734708088055,0.003515140694206036,-0.10382517960125792,-0.11669562642132682,0.09889977891508991,-0.08114410585036962,-0.07934141281166111
0.16900738323066905,0.03977521638233207,0.03400066950808221,-0.12945675924596817,0.07229058279894236,-0.02566638040723283,0.1020264783405874,0.006781045658965364,-0.1407529388872517,0.21817122447060705,-0.0991492344542978,0.2057769915430253,-0.19584915749448342,-0.0856438443611682,0.08711380824973804,0.02636330983119592,-0.12169711824198462,-0.019234805843956274,-0.0682911854611101,-0.08611119165909262
-0.07024581754842006,-0.06905253695613726,0.12548243657040778,0.06953997246015126,-0.1867078085938066,-0.08762770155142419,-0.039895219707134284,-0.00892968196330907,-0.02615038686753072,-0.15152545352683877,0.11513836998948074,0.05565947427494886,0.1411397003106905,-0.09820152884356109,0.006817045037766919,0.06273449968513077,0.09559162743426569,0.009086974390734104,0.036102170829347906,0.21907854408349167
-0.12181377602194361,0.05800171281036061,-0.06352876608365132,-0.061311553062585324,0.07932807949565475,0.03890572554745819,-0.0681923547530815,0.14539629046921526,0.030310168024985457,-0.04144914760309301,0.08576793905434857,-0.00964240876658996,-0.021657762297369897,0.09156588727220666,0.02345268032328192,-0.05506753488875252,0.1871325631218792,-0.02975236783424361,0.022777541725287676,-0.14950658526453836
0.07867505211446386,0.028052874845837236,-0.05014578374872261,-0.23502363163113743,0.07917714137054171,-0.06237131770381772,0.03269427114901705,-0.12682536027993316,0.10962800227321529,0.08503214305884567,0.03919410847241235,-0.02564980542020442,-0.031025602649473995,0.0673982267232643,0.06903735191368936,-0.07091383943131663,-0.17708517491111223,0.1876456082558138,0.017191896275213163,-0.03555965499314873
0.04933602438690371,-0.0526020603005561,0.06710335788754254,0.1300608753417932,0.15079447601581755,0.016378799759613195,-0.08879490464435522,0.02757732329611815,-0.03911075964347974,0.08575748093363991,-0.10221268289568003,0.11615042110478078,0.056431652392262915,-0.02414229245022531,0.1421436714342972,0.1111008250533529,0.0018694142364316547,-0.11923072659670718,0.007639243905663975,-0.17176996069042047
0.04268764292882346,-0.11391558983944572,-0.005723408248112924,-0.10169491832657583,-0.04530693610538419,-0.133469220656758,0.10343800198539602,0.09608179039811911,0.13512702144651653,-0.07476696528074589,0.021630310293722955,0.01671369072107965,-0.04917562829762109,-0.10709406851991413,0.00038745357448121635,-0.16816831458339104,-0.002823409175392115,0.00696291318152838,-0.1465742741656923,-0.042166422443599964
-0.028867281100381816,-0.228105052086601,0.26797433537636706,-0.05860644753259456,0.23579797391377633,0.12529250562480376,0.07093283364538541,0.0259790062800993,-0.03363007181267963,-0.1817911341340652,-0.14346666479480327,-0.1319260074923732,-0.04276563558125625,0.1522870477850932,-0.13688000090116925,0.05586228242282059,0.012935306753721752,-0.1830669510384257,-0.026100434844490296,0.09662697609343042
-0.0027161317287994606,-0.15459881805695996,-0.03346652649407692,-0.10737317036487122,0.07589520989487158,0.07942540880946458,0.12065407715720958,0.1780583655987551,0.06040914069341629,-0.061740128809906404,0.06454152994985406,0.0076964243356767385,-0.09369704774213433,-0.022544192117478178,-0.1639422806194498,-0.15071602424851555,0.09870533101733531,-0.0006983660669541924,-0.14210379911772458,0.00438513684512407
-0.03052208702047479,0.04610913208283829,0.021793717865138545,-0.022553827409211576,0.04103112294559427,-0.10451966927156892,-0.007211917739136563,0.14065746155468847,-0.05129160988065665,-0.08106224091019293,-0.04038864764979262,-0.0763193212088204,-0.042853259681593855,-0.12189313287965527,0.16303343518028934,-0.09720642091456878,0.1663857224796983,-0.08515965647465927,0.12785497317244301,-0.06653376166278963
-0.010488401629066113,0.0657589434022129,0.035876546956699354,-0.07201172137894005,0.008417185432652843,0.09684899780401411,0.0537933166917238,0.0072644834211908205,0.10465961298142852,0.04094609000549819,0.09148968961282505,0.02613193294657147,-0.12492014495793227,-0.15783841083414885,0.02603684064805646,-0.15796512707845878,0.1058947157874602,-0.20667616834623248,-0.04569432854355669,0.027007845208134863
0.07321482331717061,-0.030661169809992825,-0.10157760488426677,0.15524312654776035,-0.09496987580851174,-0.010428024295273359,-0.0798607059934168,0.13348089881600128,0.10024580448376036,-0.04414702862296883,0.04801673694100064,0.12104003297617488,0.1467908425754588,-0.13238330867897863,-0.026193178052334162,-0.17862588130777202,0.05708065212421588,-0.15394682195966714,0.0821055788854821,0.0747831994754157
0.06426150413425659,0.19313171903785098,-0.16823908857728145,-0.06636581165126341,-0.06060194505944208,0.021378000463106454,-0.055670541709118816,-0.08740976217792773,0.04969619372858257,0.1856787242681449,0.11177257689961773,0.03273802225570668,-0.08422416845422537,-0.08533742617417378,-0.011850360448727086,0.0204801478578839,0.17116838115908523,0.04070894817499037,-0.08560168132187546,0.04270442043307599
-0.018785910952002313,-0.15430827581840195,0.002704205212011049,-0.1854731669215375,0.0776361020952733,0.07011632455128962,-0.0853198662395752,0.04169288727759623,-0.11095896581345879,0.008072749237776821,-0.014654111746935023,0.05934005201374296,0.025892096277485083,0.019781705595419294,0.05235972319889087,-0.1171917403350393,-0.04718000353162025,0.1674410668976899,-0.05158123312873757,0.048339404527928294
-0.10474712708932353,-0.1408509114504983,-0.06639670782895561,-0.04189255129599491,0.020412739570226622,0.1881334347326752,-0.021900294666636275,0.01455927687415505,0.0015137252956531149,-0.1718286443741361,0.04392456876527064,-0.028723207835422006,0.01118240093022416,0.02909071806680045,-0.053101151943369077,0.13560238986601691,0.012395879012880607,0.012290001146197892,0.06733664708557115,0.07465729484396344
-0.030313576425816443,0.04380574061536008,-0.12927937251433255,0.10246023068602253,0.09233510375874923,-0.1508661282720215,-0.051383607362483756,-0.12343273234786523,-0.09774259830443778,0.1263512923506852,0.02632196501721859,-0.09343243568704171,-0.08786858428393374,-0.024692624529068195,0.09134513132200314,0.042103756137042356,-0.11003629005784643,-0.15593243520460853,0.05597086691700101,0.12327179408998959
0.06547871294239681,0.1305834318688505,0.10531665252574728,-0.07220200018094279,0.01955941902850402,0.022299824190390314,0.02080713518852258,0.12309994541799713,-0.0044271607774978355,-0.16038881047889542,-0.09773414558258384,-0.014715544676064413,0.016345116757626142,-0.031127081161943983,0.025472962076349633,-0.08292073034560352,0.05345744656944748,0.0604012035688474,-0.015219385853754914,0.08226565204887229
-0.060174491272620256,-0.08419439893805677,0.08178947600427673,0.2044067472536416,-0.08787324710622807,0.0004132327149798376,0.13027078036688258,-0.013324815592361884,0.186795776412495,-0.040679434607601345,0.024757339903167135,-0.05791645684516292,0.08361823703943506,-0.22499029430745576,0.11497033570292242,-0.07768783036682053,-0.17286110231395072,0.06817037431982606,0.055692680936401666,0.13274794841344015
0.23634928197997462,-0.0502436215124551,0.2075457076745927,-0.06705359728367884,0.10340734331762227,-0.07355933431167327,-0.019835091208409074,-0.00932092134241805,-0.009348447067194551,-0.040698483035324445,-0.07643547494748813,0.08181959806134097,0.007694559211884432,-0.01670609778160328,0.014332641686056056,-0.09582402126332497,-0.13058152273163584,0.0685645554112604,-0.21695650707265657,-0.0016725349466195057
-0.01671937713933002,0.04727920868143794,0.10823538752211016,0.09268941960791528,-0.14300274920986009,0.06572030373623637,0.0338865634953492,-0.006439862140154614,-0.027165161938437425,0.07741650352294599,-0.016224320376904168,0.023125536065638608,0.1343056858932044,-0.00035155942338927203,-0.014834699940875053,-0.05196892305361441,0.0779123033688113,-0.11596700748159376,-0.07769200618359391,0.029919241461854738
0.17453002797726408,-0.06385551049054651,-0.019571926878352103,0.10326567239656453,-0.1641639642639707,-0.1839161355015843,-0.26505708644465203,0.08655435401792022,-0.04901999643151016,0.1968788569016224,-0.10602467254926956,0.03215626544156169,0.3092049539563061,0.07162974483049722,-0.0788605953201193,0.12103804552564483,0.07837553565101715,0.013832098306478018,-0.06794015593961772,-0.10856985342813119
-0.07092532891341119,0.059613168429618744,-0.020272119727536352,0.1494813306442725,0.0660534249403736,-0.15190930810746828,-0.08475173879047793,0.01604627790622576,-0.06677850190442478,0.10491544956703565,-0.019579502421978236,-0.1175594136489321,-0.1079257315579646,0.21691631240158385,0.11593508586547736,-0.08278050073070443,0.09553570480215803,0.0033885578586455496,-0.1240934438465358,-0.19003906226147507
0.011236741399755671,0.12959072125292445,0.24424137091104686,-0.01692470590512914,-0.20446570558016428,-0.10108970573144141,0.2411433686915481,-0.056218351311229695,0.07312140747411924,0.11247386026131545,-0.17806649759395943,0.014821463164121612,0.07043633631154123,0.1113238503055318,0.1351818664719379,-0.0802767628390085,-0.013704837654943514,0.004497544723458068,-0.232497483552408,0.09313792032009564
-0.12295536993447667,-0.06172018290206487,-0.010026036203022061,0.07614438942765236,0.01688377039123605,-0.09866947927445045,-0.09431152483200049,-0.1693873931139855,0.12969729078413494,0.08821178863283596,-0.0980074759120082,-0.07122209900638278,0.162882677607327,0.10983055544635303,0.04987928545781288,-0.15174483110317208,-0.15782268067620958,0.12710895558030177,-0.06534828992546432,-0.20637586278484113
0.08005419491388109,0.20701441576917531,0.0522869691747569,0.07279138149973655,-0.14979048892333002,0.23539328382896618,-0.14775893296192832,0.041290732055918204,-0.12394298966054115,0.026409396446136397,-0.07890916904322312,0.11339263450830131,0.024761838769470086,0.019166926341701748,0.04767261244015347,0.019887412730359075,0.09207256649246258,0.11632703867684589,0.07844841258794792,0.04750574377588113
0.11145273561414973,0.01987787431290669,0.020251077529527404,0.13862711540364778,0.11953197370848903,0.13170251222580073,0.061667617206015934,-0.018617741470478216,0.00010267240162019925,0.01375203388603775,0.05204546570865647,-0.09404833008696968,-0.049609305341754714,-0.0568756181425477,0.10279153180018044,-0.0033936630070835923,-0.03416718243779872,0.06831541437815403,0.04350613716177132,0.10819346592124587
-0.03948910604457467,-0.06265119211415687,0.17165465101588487,-0.06878643992596088,0.07739585070158422,-0.057984807208786536,0.033864788584438414,0.019606502397560007,-0.11271250185111356,-0.14017399813042178,0.1429312506763918,0.00841484948140825,0.029424740441154094,-0.03941955828435537,0.05015091776531908,-0.16343672646196716,-0.14293919843045685,0.06733499634273178,0.023357967673290066,0.012326538590329084
-0.016655733435814793,0.07991961534861403,0.12429847148766107,0.056567618060206014,0.11601872409868826,0.06622511426526333,-0.06179126454794849,-0.03038716916846581,0.031523106360560715,-0.000490002112722924,0.11582817270768919,-0.13795986466551238,0.08444774382105055,0.04576583415694815,0.1292594467113065,0.09578635175636441,-0.03527870786857466,-0.07979530168916155,-0.1202859693410518,0.019149330097754606
0.092824049206811,-0.03056154642534427,-0.0663501878138936,-0.09299958062237539,-0.14349897280025817,0.12977514261832354,-0.0038957873139182104,-0.02436612672895298,0.1606122673879984,-0.10447108117106806,-0.008249773495039466,0.18201506222336933,-0.102892254412323,0.0605852672842217,0.08927844732614916,0.08154055410732207,0.10974028167833601,0.012396702744653739,-0.04306855522768429,0.09561340701137343
-0.17437745353900289,-0.11362967385992792,-0.04459992649292213,0.1408282348960757,0.12042236597664456,-0.14921983975617337,-0.18538058917887068,-0.13314407733929276,-0.04147701636130947,0.12617584933345125,0.09220035567187948,0.20657880659706293,-0.038235766870476466,-0.1265509433527995,0.10435461423935796,0.21440793016637072,0.11433420259538112,-0.0543078996393786,0.12795027458192496,-0.1137611132054864
0.06856911915679302,-0.11319705295461541,-0.07310799353178281,0.04582989940878737,0.002392732898342574,-0.03960848928237234,-0.11402427815677058,0.05023854650690454,-0.10938923451072693,-0.05522726016691779,0.029407545655269512,0.03740374352513705,0.3062349658220068,0.03680977815379926,-0.03396976882005968,-0.0461801691943671,0.025994542293727947,-0.004281463419364683,0.061223194120369244,0.0826605886598276
-0.10068574635804399,0.05978581019244458,0.17750124991221156,-0.06428811937403985,-0.04142050667826917,-0.04492979324480203,-0.14930018688509605,0.13667211400964108,-0.04339357531918975,-0.039271208345186596,0.03744495929292602,0.1607152912151499,-0.10333685625058954,0.10978985183269119,-0.09271762399403696,-0.17075304914404188,0.03954536076236731,0.0016785009060685866,-0.1702013219284254,0.059490000246048065
0.010300761939655024,-0.159117217083899,-0.01615407664137899,-0.037273588881484285,-0.12721336115334908,0.04863005389762462,0.026887082952252048,-0.053612137634628916,0.04363561190010436,0.021864168496951865,-0.07976697698831156,0.02696149969711084,-0.13295036599985843,-0.02624174963532167,-0.014893702151826154,-0.11221260354059116,0.25933515058967516,-0.02908929278420489,-0.07482529844922048,0.16118132450877792
-0.15962865900788706,-0.1826461005355573,-0.0940201036032731,0.11568588347225577,0.04239425863374471,0.021076117833834094,-0.04985913068193919,-0.02774571271898233,-0.08344998121121089,-0.08246288956628278,-0.07862313318668952,-0.044642923602311764,-0.040055790173630396,-0.11088430598537077,-0.17569349294490166,-0.08252760918983683,-0.05714762737562879,0.15273500737316248,-0.06495921298352068,-0.10714236743958176
-0.14823808900065136,0.12393115943571069,-0.0031656201783380345,-0.008958607476870382,-0.06180784256376195,0.1447480891921444,-0.036849458834138746,0.17388039620825202,0.10548767099320572,0.07105409242525375,0.07629634207597925,-0.08645324411339539,0.0850604674299915,-0.05052018430552156,0.1633898299626012,-0.052693928684347136,-0.08457242121777805,0.06896410268680774,-0.13235722029901714,0.0034417502693933353
-0.026195965403894777,0.06066837794626853,-0.09973341966152849,0.00013438281238286758,-0.023934588234932032,-0.014984859522146211,-0.15326811360347214,0.262096399720446,0.0350826083964218,0.2101775252422276,0.12516785498294875,-0.09180315625778455,-0.12207562620712359,-0.205934727785042,0.02904641114088721,-0.01572776561771371,0.021392691204721467,-0.08447252584413052,-0.02530541557330422,-0.08686831083942002
0.04228751318092151,-0.017207312415691824,-0.05862293001444085,-0.00986006686835637,0.140980672772015,-0.05045736020768019,0.09083765780602229,-0.04736848890479002,-0.004640070799990618,0.117222398468243,0.11142625252216416,-0.14036435206251485,-0.0018978556955995447,0.15710451596436006,-0.1508008134330716,0.005852820363490934,0.07223860869855452,0.06224374582653835,0.06634061586784071,-0.13626344531093018
-0.018960512115651345,-0.014529149675007026,-0.07099247003283335,-0.029288898827049815,0.05228073670381157,0.049623078471599455,0.1768976019357127,0.017237799114975097,0.11355023463146137,0.09345336000059909,0.11298520380534124,0.13954239284049186,-0.06621467550636909,-0.04512845671589389,0.033081223028052595,-0.1401227896868381,-0.15130907493028992,0.026426089163572804,-0.07306358681245037,0.09159461021597656
0.036967736589854,-0.06490804257856032,0.07949097272177684,-0.0007888752568809674,-0.031066256800173636,0.04772149626295272,0.051194611627116,-0.10814202713503003,0.15326612454215327,0.0005591999368757247,-0.010522108224445091,-0.1833692878896947,-0.13631414435921227,0.05079514774223462,0.0026790788231029795,-0.030403235221965655,-0.07411506282597452,-0.03708640610327621,-0.01871484814671624,0.034550834636306656
0.14892400847310658,-0.07193429281041962,0.032679116697004205,-0.019899052134717557,0.14030728308345927,0.02762368012181317,0.054337658222361765,-0.09063516556183697,-0.07870796079800234,0.06906241542929156,-0.13617957212232593,0.0152326893958718,0.07815991114997833,0.026003866395437322,0.10284524114149687,0.1232675633836152,0.09072416319925672,-0.039015594444686774,-0.0010139925252066462,-0.005011762877328325
0.16208813503179353,-0.037536881793767046,0.006123943543474974,-0.1301310177283805,0.13382550030593807,0.15184402937784203,0.0026349310494562287,-0.08202146344485334,-0.08356454535930832,-0.026238866983374062,0.02121805922019817,-0.055962966971930234,0.07560488714773331,0.07326964819089828,-0.028391765786800582,0.10782646157824471,-0.10884791549718723,-0.14933481936907775,-0.10158191100431396,-0.11299732993154993
0.15336127957553497,-0.09926883918749485,-0.02208073253143494,-0.021299562199861358,0.19274145606420498,0.023408944921616284,-0.006007018379888689,-0.07881241840679985,0.0640146543652857,-0.03541507380313133,0.024796139639546088,0.013722080210542616,0.1560716711016069,0.2569898748212995,-0.1377419856362224,0.048429113392083056,0.17605575776119323,-0.08274272335517414,-0.06581120964804901,0.13173471557813882
0.026248354537160262,0.10616256245253262,-0.21073286403595173,0.03955208884378646,-0.05128608285420558,0.08023400835884503,-0.015232607290057884,0.03932305434929161,0.05720172270219719,0.1999324352123428,0.0786337159849179,0.002284153384373274,-0.07255521436825212,-0.09383322580491732,0.03946938174706253,0.17481537945612383,-0.23498719622430062,0.11253147151665854,0.031995207541819025,0.009318515294762204
0.07203405957063469,0.025127402398230282,-0.013865058581148539,0.01838997741280375,-0.12294007060670181,-0.06302729566581278,0.017140337839131322,-0.046446028854833475,0.23842106451928113,-0.023879775841295414,0.16596597764492768,0.23242023916788762,-0.08182946075830136,0.05691272312324491,-0.05764546248052138,-0.04991609304202812,0.1530812034632586,-0.11256598530365508,0.08314809861463426,-0.033483558824681445
-0.20619250836141928,0.007486691994290562,-0.17915421414431404,0.10065791372583668,0.05717048662854036,0.0784042943928539,0.06098632817933307,-0.04763885702205055,-0.018334615936758045,0.20032794559822995,-0.0566016180097111,-0.06196783858570722,-0.26056354824138156,0.039036031025492954,-0.04867920166217136,-0.08915914265610851,0.023889872521304117,-0.00011346866875225264,0.043272382506598976,-0.059780013645380145
-0.04330692395620516,-0.05196116735687991,-0.05558588267814771,0.03939044335038161,-0.10880945904055823,-0.07161614431588859,-0.04552868865100184,-0.08529800562530743,-0.10724192823690085,0.024312269234050766,-0.043536313012553715,0.09686407329934957,0.028547948603203248,0.0939966520290583,-0.034917055474069134,0.12104295089081099,-0.012971426386261534,0.12818598523877497,0.1816141997115418,-0.19043128944878035
0.020942255767192018,0.08465719139734265,-0.007111184225654588,0.22785696463931637,0.002241541865324895,0.22661129391421136,-0.06641665844421696,0.1490287185557124,0.1919840801103344,0.10536032423053804,0.11255750231419631,-0.0874192617107123,-0.12446946953594584,-0.3552001352759592,0.17884724828203538,0.04381644730742512,-0.09635971816439869,0.3045068008422125,-0.06667801161727878,-0.04022934633170328
-0.05054489569198204,0.030442155755810593,-0.05133798204760798,0.18188911199422647,-0.07380315207345649,0.02996021191347173,-0.10331228682387635,0.017676646590568612,0.18382842402853805,0.0668966124747765,-0.05509562482197172,-0.050570485177647444,0.28257091921412625,-0.040264716798350315,0.1054741414499868,0.17719752412343479,0.03338757747315925,-0.05049491584915914,0.024930071910400427,0.30743332584367766
0.07678393549800608,0.03196317595884562,-0.011371866538219923,-0.056802540932028384,0.16744850997073443,-0.10541887391190641,0.005710693734607171,0.12311008337807045,0.1840368082111199,0.08712453308925475,-0.049205872152791534,-0.08452126547293307,0.0512590321388934,0.06486867227744646,-0.08792087107496685,0.3481259452868158,0.028582591566708927,-0.005887182003077696,0.10985623336871785,0.10700314009776013
-0.17257271243586284,-0.058945937355791754,0.16539719097512678,-0.1299251255538996,-0.13097257791397277,-0.04232694194334103,-0.051100641860286,0.051507808060076,-0.12228004793812262,-0.07636753385245147,0.14996777932988936,-0.006329626364100385,0.054362252868284985,-0.06926388013015258,0.003122746446656958,0.03332781953365167,0.10300000756361526,0.13496529261642073,-0.05536723151836226,-0.0690380317733141
-0.3278385316271559,-0.014279014726970336,0.0411012894081931,-0.03772858127301083,0.00667385525714206,0.1672980162212726,0.05200372210301116,0.021190270678658907,0.11656964849754138,-0.0778695070377919,-0.020104277043411577,-0.020403331849090666,-0.16642085410349258,0.06788565334693605,-0.025730634410501732,0.09571901757485687,0.16602493738484744,0.06414240924605809,-0.21921339034657877,0.06264440059117078
-0.3171000980821706,-0.33722077485675,0.022687529165496406,-0.07211473916961593,-0.03408995538575246,-0.13436382236127836,0.15325803205143773,0.13036863058737572,0.11210107014809186,-0.08569901586531192,0.02164069056792306,-0.17669419096268582,0.12097075380938974,-0.09978182785266021,-0.15215153209111165,-0.09265209468348226,0.07341465201658336,0.15129935932639696,-0.2130858057069014,-0.06720726338108272
-0.17277737242092572,-0.37057482502498523,0.09723537413072345,-0.09275265574882842,0.16393895832825273,-0.014412022087032593,0.22647238689580337,0.04986734315142067,-0.0063142058922258095,-0.04815685795957758,0.21981643640654513,0.044867972930901626,0.011884200012737262,-0.197159569769405,-0.16377985781375765,-0.023870446583044977,-0.05660149620855722,0.17071335477571117,-0.24660242927398443,-0.014529037025008759
0.0539085489561596,-0.17679214542079302,-0.10254761242104135,0.19768399095834058,0.17054754837839817,-0.24308058917130912,0.16984561871701748,0.14433820167322997,0.011974051142189846,-0.03251871571088734,0.25382091591952405,-0.13709344361652254,-0.06806506322416431,-0.057875083100737516,-0.07861558377293426,-0.07048622447521516,0.2893224960962624,0.03206281648741015,-0.10815956360439752,-0.19467010702104934
-0.159080341881772,-0.29042663119320977,-0.17731361177771712,-0.08982139697119008,0.26272365715782936,-0.07068103448190746,0.25587659028624027,0.14063132044815002,-0.11375212772550072,-0.2565250357919773,0.23195637787458837,-0.13211700709661986,-0.15992206136280027,-0.17668603742652159,-0.16553242415457187,-0.35829505656893407,-0.0040887208739333976,0.020824497707471846,-0.3124437560541169,0.04458950535843192
-0.17578218711517488,-0.2980254607564484,0.09206045124780221,-0.1468965747517656,0.20311819123207914,-0.06390374607241375,0.14512257665095946,-0.03437153806447479,0.025290984088318414,-0.400122314474475,0.08269662580599771,-0.08762624311459576,0.17624985051056746,-0.07672913255434159,-0.19213151501569617,-0.32456443675874463,0.08464630269458218,0.03963478999057689,-0.34771125075565257,-0.2411620649439005
-0.36795438573912365,-0.2173280527386542,0.31990615274472334,-0.19770107953567412,0.19701850187845696,0.23499957910984276,0.38899384771938683,0.3663336898697444,0.05712310114585462,-0.2726154384884937,0.03538927948450243,-0.09707435355617068,0.22712393332121228,-0.2849733367797794,0.053440458281815144,-0.23600148484721084,0.09880279377771997,0.20436369997243425,-0.2366199390405614,0.06131527143424341
-0.19828945528434144,-0.05409961994340998,0.4527542552287802,-0.22113928768906854,0.2716796108604687,0.08230222796710925,0.3064038754049415,0.05128947237232316,-0.1524908407829664,-0.6685442352485629,0.011964709493180556,-0.11969120525359052,-0.14855261679128165,0.020074272931555174,-0.439114884228413,-0.2640134288455756,0.1627762138190207,0.22609201902703507,0.07907988519556979,-0.054129453220478026
0.16893154256725332,-0.019652203839124926,0.2835626737221743,-0.06656763969619084,0.16131701866753534,-0.013156056649947647,-0.049448902579568625,0.12268391245536661,-0.08011463002280074,-0.14932603370814942,-0.021819582344286943,-0.17255898134319408,0.004482097146266309,-0.13878039552296303,-0.19162402509592136,0.037159847894692156,0.29178980252661085,0.1376465187502694,-0.18557623536414639,-0.15483979307392717
-0.08767849637641781,-0.08811252505713338,0.06880203567373608,0.14631521934700295,0.06642427912234938,0.009866162680786801,0.34067519038937394,0.2935898679958008,-0.1564713578260537,-0.08478464941716335,0.026315092285524148,-0.10213040702049002,-0.0018272510869915158,-0.06659076879053297,-0.12223795195982991,0.0186586710778761,0.005711152527355399,0.04036419798138869,-0.007025411710600964,0.05825066203520874
-0.02719871006422405,-0.12657785680577008,0.054074316453321496,-0.28232334012934485,0.11160142889615134,0.26418972028427773,-0.051489280411210266,0.066551874798602,-0.36282623593360647,0.10260174830843623,0.26601518068855856,-0.10497036670920147,-0.26553254288533923,-0.022846760664348105,-0.08380782537561009,-0.051287263665892605,0.028289188763130396,0.03182262166850089,0.05025447066643625,-0.12462529551829585
0.055792828305155175,-0.11738780470775591,0.09598419827849652,-0.010824886770356406,0.1890037235967737,0.0005016553383614312,0.12032995623448228,0.11711800436260694,0.00966393719513706,-0.16793362687901112,0.0461183055748557,-0.08507272724330653,-0.2033288978755804,-0.045920811065417434,0.016174112409617466,-0.08580476520186812,-0.20835329748740977,-0.005760617175657144,0.018406667822313445,-0.06661206524584255
-0.013463783471003495,0.00562784079033915,0.12394375507415023,-0.10577353798301604,0.18316677867242975,0.16894169588344377,0.08243695727572009,0.17745563747924423,-0.04817684124657276,-0.1860075753001043,0.18739592052704354,-0.04032012339486191,-0.0329412231677335,0.09292823911693847,-0.09147501521646112,-0.07117879339423054,-0.08222459445828019,0.1814635553372535,-0.02971618937040011,0.20668241172903487
0.012840780089698705,-0.13510777039759492,0.02812201974063699,-0.0235148168351203,0.06351166429321868,0.0748934362206361,-0.03244023964412289,0.25834232870582197,0.18127964991806053,0.08736253370035445,0.24490798043998588,0.09341061652674405,-0.2870618426963866,-0.1422638755670141,-0.09646178053087755,-0.14112487765837992,0.1417787246736895,-0.0326090799756238,-0.14167037335312266,-0.15761441215399027
-0.06630730556024013,0.0060050742324331595,-0.10715077417475809,-0.026659881289940054,0.05998199226304312,0.021318065464394402,0.02298772706550767,-0.14537854214137005,0.10868653847021871,0.06749230240193478,0.0943902804598826,-0.08534723724348425,0.0027348577143874713,0.09911471571490495,-0.15004278214364428,-0.0804146299323908,-0.05071282201576323,0.21449477633044056,-0.08557660811469583,0.008510817529763752
-0.009750374288340706,-0.08252544947561082,-0.19930070007914916,0.029705585968726116,-0.06288800601643828,0.07713875676672305,-0.01687792001131851,0.0848044860393865,-0.09108426229303977,0.11859445811992159,0.03483620479191315,-0.0851948423744824,-0.3175343175582023,-0.08599056728269591,-0.17145700002898623,-0.015722236972953885,0.10039609307441244,-0.0030930112337658913,-0.12388320302574367,0.05981139743862561
-0.05192009500780464,0.049416844713596225,-0.033525225984820224,0.16049195587490137,0.06859692253128682,0.13846802612498696,-0.05933610441314795,0.004671240229719711,-0.09395360491124573,0.10987648853645035,-0.10743188075635636,0.046574956201640774,0.05399186821619949,0.013362338561914076,0.01671346339974706,-0.05955403220641556,0.0860417678574034,0.1382997788969192,0.009038062476242224,-0.091677442027364
0.0356120897120445,-0.006761334207209962,-0.14562874118252744,3.9350160887985234e-05,0.14330311579166563,-0.03869095379675122,0.06444591631581471,0.07282818841963944,0.09821434774422277,-0.13587270773046164,0.09451926421702368,-0.1068407937759548,-0.07883277740969462,-0.11688255973190964,-0.07341911106598632,0.016339104579964892,0.05947358879525537,0.12119439015092322,-0.01830549243823187,0.1043777000410822
0.009500364511026885,-0.0071742690835192085,0.07408258321153395,0.1604449767027198,0.07916747029235453,-0.043488750927778264,-0.06639648682180595,0.05997900383504104,0.01885923284460596,0.06362648276181798,-0.0564891329994841,-0.07406608049889585,-0.11835815567233586,-0.06050550115730147,0.10761187593325841,0.1278078442001925,-0.13160852908912696,-0.13565429295428968,-0.025746931727193546,0.05338400865014417
-0.10600586168306857,-0.08883888675782042,-0.06237838079504837,-0.1476127806430028,0.07763875041092916,0.23781513092086565,-0.1820801910111174,-0.07901285472586671,-0.1059085837221727,-0.009722305146558545,-0.15323496044893212,-0.06239393154354041,-0.046587957021189674,0.12925247680837681,0.0858104834053614,-0.025907198469786126,0.1533027830489149,0.01644623873449226,-0.1878749849840714,0.006441270527601401
-0.10435533589222219,0.11984939219968704,0.17380050440193162,0.10621190034260307,0.035935224301817247,-0.013193465740091267,0.029483120386512747,0.061842591221889336,-0.00579854422612066,-0.002538759574902746,0.18226037676500198,0.05932730154132635,0.11213178027065406,0.32611784539078864,-0.03484278799521192,-0.16289311253266006,-0.10052258271464454,0.02019928088164076,0.3099370087037094,-0.013963790817766726
-0.17119108661406512,0.042534347218377025,0.017041819620508995,0.10545381547792472,0.15055902719924372,0.12254021709034146,-0.1043038807870109,0.04975202155737352,0.07195652202203245,-0.06863609588233247,-0.02713064462095925,-0.20787979112542973,-0.10613619326010226,-0.030305903772576845,-0.0312710297254347,0.02786780244679074,0.0008015449542533942,-0.13985110167480358,0.05328585108752363,-0.09054128009365506
-0.003056659614524757,0.09038844198670666,-0.05170749250667888,-0.04095220744009861,0.1522321506747269,0.05193740958987423,-0.06346433004158528,-0.1986554869467794,-0.021342834276874986,-0.2604967039908396,0.12092969026002072,-0.026914395410703403,0.01326853864057471,-0.11762235309404528,-0.0291942827853141,-0.007858636839009916,0.10008980535209715,0.011149388127475816,-0.07155698869042826,-0.06941455874336075
0.11691337889407924,-0.22116858870431222,-0.16872896583349645,-0.08192518937701634,0.1293602028417751,-0.08695193682584511,0.009885934456915296,0.04181872957157909,-0.007375685262427041,0.0570889220601188,-0.04815928771994954,0.003205554145457803,0.20708752050374335,0.03415848515587178,0.1171862010856215,0.040238059569737555,-0.030054580999892173,0.005333270841701977,0.2274146535921394,0.043581668319421646
-0.1825939898149539,-0.03677234929850523,0.14826346196059842,0.0857289835089056,0.038466433190549695,0.08792450091904996,0.055084280799581456,-0.05681451280403849,-0.2799787584127099,-0.1150815291851366,-0.049896659729060114,-0.00020502581351483754,0.029359683307001023,-0.04752793057754326,0.14654575059407482,-0.12688443186055506,0.22281143321957095,-0.1005632828246238,-0.008908690392862868,-0.35328663162378615
-0.04508655767718339,-0.01031952227501101,0.10265505203359249,0.003963227969237037,0.01978602881330382,-0.1355859786564279,0.11490419361044632,-0.06969781905600723,0.08119916403596303,0.003214882947130089,-0.08934593795096209,-0.12223687104553181,0.05951366987182275,0.019759365648796958,0.027488000936580253,-0.011090820633856831,0.07443322941872975,-0.05187564235711173,0.08662354234905216,-0.21180834946488242
-0.12498792330904393,0.06724263972914024,0.015879785892975774,0.028089580933028758,0.0694990915425464,-0.061598124548453786,0.043114602384701946,0.1059854050391717,-0.13492749397289502,-0.19663998651280823,0.3201464798816961,-0.08430375596006802,-0.19029152632278165,-0.03651393572377546,-0.0649611985098151,0.022724932821342084,-0.0033095276768660164,0.06490734853540066,0.002072586618954364,-0.0689593081124251
-0.09784794233078432,-0.1416410658105184,-0.01775343762096801,-0.05965738551729225,-0.07030070636157744,0.01770652611299457,0.27506453404913866,-0.12245622594890682,0.04730558711750013,-0.1125238018514506,0.3132507103274594,0.03036153151491963,-0.03351934496937406,-0.0637220659151554,-0.12807750242708474,-0.18938012182028843,-0.025585924597542272,0.18171327244236535,-0.06515158130906151,-0.1542016190579791
-0.5019794065668551,-0.4526706203124007,0.24893278907191235,0.006165119536314804,0.17088678399612584,0.058126460998948755,0.35596495809775214,-0.22210737443986955,0.11610913335009379,-0.13093786880406694,0.3896730092920444,-0.21768926238395706,0.025462677156919095,-0.1417599719847484,-0.2853192915425595,-0.052899244878172845,-0.01228281773225092,0.3870846013447779,-0.48919143288031675,-0.06645348867021723
-0.17183098143518785,-0.39610557090775367,0.041427728484386785,-0.33210289900845874,0.1507089001304906,-0.21814114290887468,0.3275119587786665,0.13306104970601146,0.35547509961644214,-0.03236398379768179,0.4550874690811891,-0.229518055999742,0.3058947134530615,-0.17792536174039567,-0.09659887288498836,-0.22795048554162176,-0.025337539746538656,-0.1774291991323253,-0.44161435644928865,-0.004470647552912256
-0.2447412654733022,-0.37759966484710594,-0.09753162649092381,-0.2649487813354671,0.22828519170056635,-0.1802442353905188,0.08714025798812698,-0.07741466202176721,0.34812572716619933,0.1502959009664817,0.42557006489982746,-0.19514261809637173,-0.051133840858998206,-0.22900921975001898,-0.22769495507899953,-0.4094353015091688,0.0957771758268357,0.33779308131178465,-0.40479348507275387,0.08847277701941095
-0.2182112357279652,-0.5621377718536905,-0.4941026968396353,-0.1558940331641523,-0.0069778923004799615,-0.3099619071670615,0.25008868291131936,0.14119281813887252,0.31999023907938784,0.31128490242587076,0.7897791949917049,-0.45344433876407203,0.33899668372947,-0.06279627469227213,-0.19458349613990863,-0.023219244707717798,0.06195547960581204,0.2246654618098033,0.059653455501704936,-0.13735476556375298
0.1744411329681642,-0.7387935584727521,0.2892001120082912,-0.3069642163352249,0.24987637285770348,-0.005553275874110929,0.29810130363970555,-0.3726592760832129,0.4744719824738753,0.015332949062063958,1.0337662122417324,-0.26139183574815006,0.7683217550004491,0.11487845900169825,-0.1697602548895601,-0.017796765303627223,-0.17575812160342735,0.2014887616014114,-0.590354034714102,0.013981003106549457
0.04319254632853926,-0.7090728400734938,0.050004888792633206,-0.3896204081600866,0.42955576547001567,-0.05651598544543016,0.27965083136519886,0.1276716706598135,0.4749619989634441,0.01800416818296206,0.7545232299286952,0.27499859144988464,0.29276043100584254,0.2332669084498091,-0.22989751643726825,-0.25207061236101064,0.09723381775521726,0.20911749957279369,-0.9359606427115357,0.04091516607465584
-0.1573506117839184,-0.031237432053629596,0.0797804946583189,-0.3769985519439342,0.23040872115166802,-0.0689022725274946,0.08491023150674733,0.23881686134662036,0.5827189151396003,0.0017223453485747122,0.9291295772166019,0.16147984758422373,0.3532231122556238,0.08173755076057825,-0.4048615565219056,-0.2635939933850279,0.41784250980223475,-0.3115743648807781,-0.4830808270479432,-0.12278523429509884
-0.19267971773131212,-0.24728521316332447,0.11240498532385075,-0.4349038100503169,0.295452508899953,-0.18371762251037485,0.03376913199720711,-0.26501835304693516,0.23323324722316596,-0.14131347086290072,0.7084237215000165,-0.02229020420144092,0.4190120071234979,0.07624557355987813,-0.22097981219441262,0.0824109683628745,0.3437089523122559,-0.24117794619213828,-0.3444378936511207,-0.09252490461929846
-0.014306735860011898,0.06735210976101659,0.05536723583688072,-0.28229912894101766,0.08511498642787167,-0.16056495916133612,-0.14626932112082372,0.04667472060566186,-0.22595217940177298,-0.2514473963811627,0.32699149037306385,-0.0009930823278305008,0.37861313542366154,-0.010715048583742346,-0.197059601879942,0.19891630257807486,0.32227453933824507,-0.051052685884783316,-0.1718476154288772,-0.28409923359173284
0.4654376882434646,0.10347120341490794,0.16332198949112722,-0.14390566148895065,0.2866100299261198,-0.0001052132774219969,-0.23927416843622418,-0.033123001483072206,0.21716086277737764,-0.13504425434367923,0.34346347737834937,0.18649449115516373,0.3821705706903825,0.07694013726574521,-0.33974806306339633,-0.05001283760767042,-0.07639061578731986,-0.07422326465662082,-0.016525050722678996,0.0059169003049582124
0.10919286612924627,0.12222716018293957,0.5033846119841987,-0.006356738290208419,0.2307432752181478,0.2610865708675215,-0.18030264716365793,0.10920498281854987,-0.1573440135613628,-0.10832012845510293,0.006771304162853994,0.01130454071065053,-0.017098389577567905,0.36800123773867355,-0.15004985422411585,0.006259414937481008,0.038081306666929333,0.11788290139624068,0.31234220834057985,-0.15853159805619618
0.10448875777146072,-0.012090213651580127,0.07495674739931084,-0.2416542311944018,0.3000542014058197,0.11276922257040652,-0.03265274089875004,0.34492499465974774,-0.33747674050907195,-0.12809886499731826,-0.06558131453121181,-0.33934699895176945,0.014134466701895911,-0.30190943975637635,-0.32722967276565723,-0.16821842235408818,0.01787697839660395,0.1973549193468632,0.030918550420987248,-0.2387814146202104
0.33165442777405335,0.06424477798387435,0.05553022282850209,0.021975801891275334,0.05512720124406565,0.005781933141025342,-0.44554651021512115,-0.2714357445369266,0.028011228531130666,-0.12500547087460712,0.08296319474229964,-0.101925245865414,-0.16351568681936254,-0.27708940866647436,-0.35024990816365803,-0.1242425410006286,-0.12131050474560465,0.14485455491838573,0.00887812550536643,0.00197528396359392
-0.06130704172086191,0.2639030411418332,0.14958326418724507,-0.03371600101269951,0.098805215855159,0.22349607605055802,-0.13888738848735938,-0.10706854502032756,-0.14632363525356978,-0.03737264478149556,0.042670819341131594,-0.25462632521815276,-0.33800205317159426,-0.13732302932481202,0.02844698487292082,-0.25954224548326127,-0.16440265501712756,0.20502783762113144,-0.2400001988211532,-0.06897238528385399
0.005443758511248284,-0.13001138495166822,-0.04232009798185494,0.06387986202808471,0.09936152449808294,0.21652665669743476,0.199278013081031,-0.07808142001888072,-0.027639770731751695,-0.2250590042495197,-0.060511438678146526,-0.2676821629162126,-0.3640878361480754,0.04878997932291962,-0.25839873437085287,-0.2745699761738497,0.0651614421316092,0.14263829265404276,-0.09291164281554443,0.026690854265756667
-0.2779690230897929,-0.17716642194920915,-0.1378226826312297,0.12213182117363951,0.370697172536964,0.163293562718055,0.1379552502815477,-0.16784367707689962,0.14067165779317964,-0.10662534251764047,0.13184858289959303,0.012822379197442642,-0.46016359005970264,0.11568647124595254,0.0023209913958514472,-0.19058673074981028,-0.08541486304247926,0.13061048822423987,-0.05720798814729537,-0.006725936449988053
-0.21137729624401164,0.04790898162375404,0.09520582263862007,-0.050214048181988706,-0.16004127518199657,-0.10609442273459273,-0.08048508516995276,-0.09809082592300908,0.2847203440177396,-0.11699077555147075,0.017227619361426104,0.004268808880357273,-0.1406116751465256,-0.07563562956157414,-0.01901236212547226,-0.2824659682393501,0.08629760599265765,-0.0027795614131196434,-0.0073700797996961625,0.003614095095884062
-0.04001825204600895,0.05192390061446141,0.04612346578968485,0.10144925798514234,-0.04147655211857408,0.05356546679511215,0.08695119936873884,-0.07418746317817798,-0.11911260021437654,0.28553802632542696,-0.16974846411617225,-0.037207058044469346,-0.0036310813652010647,0.06130198704005121,-0.07896842028390219,-0.10776450897731717,0.006641350045245617,0.08648432799745764,0.03888785518043903,0.1772116951187108
0.0484098120930325,0.023912821073922664,0.08216253348698023,0.0794523386778462,0.08957830900999326,0.0831152927018389,0.033356698318975454,-0.1488605265595919,-0.09854402539573132,0.006437627442396984,-0.02518741746358485,-0.15174159528946515,-0.09840972747805758,0.08663375904645393,-0.10579015167592415,-0.01112851550718852,0.08406342391075271,-0.08096191286254115,0.006655044954027663,0.029673773042219482
0.11299417693554188,0.103479017949626,-0.03754963697062527,-0.08820519571206434,-0.016941352976227977,0.07648697714225235,-0.08363672033648328,0.16990906546584642,-0.1791245396021337,0.05378085327736706,-0.07859545069705043,-0.21067454074298136,0.13020807315013938,-0.08038217826301364,0.17605954771057464,0.09452916846304943,0.06344779971190936,0.11145096066062228,0.04901679665596215,0.11883900988940117
0.02022837522222414,-0.04594798230524158,-0.162948394505383,-0.07682941707001766,-0.10645175202450673,-0.04004055819866501,0.1419558624795697,-0.09404417604374793,0.1567822695561631,-0.07613507072250168,-0.046671616970240935,-0.13704110789236484,-0.12684706879678956,-0.0740527369519918,0.00675408394810267,-0.1673003227945698,-0.059010736698309064,0.05912066541926195,-0.02411348656403703,-0.07986743440210392
0.09269310733092548,-0.047949042046301286,0.019136322683640072,0.09979000341983603,0.13573682925365038,-0.026990276484847517,0.06020953852105422,0.10670836550542571,0.07558628131536857,-0.09448464703047191,0.035040187563664414,-0.10312169019553978,0.16102875160099697,-0.060304616802455864,-0.05673901398248167,0.03456482328685864,0.05737358933647993,-0.11772608730660648,0.047170459193326804,-0.026150254206351867
0.12726903136040216,-0.057424598175674475,-0.03766610877759894,0.09691593077503059,0.11657403958097952,0.13426166469645928,-0.01960879190032691,0.039866160434545175,-0.12308575872664435,-0.012744871343305727,-0.06293803709820225,0.16747525376878447,0.121678435146702,0.14310615119536185,0.16578701899404114,0.202079437181701,-0.033256339889504695,-0.1654840663975413,-0.013527992818134885,0.0778437025009109
0.11246753118026413,0.09182572901589785,-0.08762724309610066,-0.0018278739296814462,0.11067582969045286,0.17767602196583804,0.06467141805999505,-0.15697091801719296,-0.11886811644282044,0.11040452147033972,-0.08307281483744433,-0.04730841360148784,0.14723982802048263,-0.08270457163952145,0.04503140119240992,0.005595594566597409,0.09225643376317069,0.07439310542048046,0.12309490535216712,-0.0479131120330702
0.23142684240902178,0.08173201796191513,-0.07678370859399987,0.06307891676406792,0.015692368882580167,0.013204947085083997,-0.07249829957784067,-0.05131020587325049,0.14472509053514904,0.10210671344759786,0.005906268510805942,-0.04425574815295827,0.24791948542596975,0.10564384824565574,-0.1661116295173527,0.0013994533575221292,-0.17005267657771864,-0.013945314370812794,-0.08378650059902347,-0.08867193631697066
0.08595160858315082,-0.07233334781555628,-0.18476431147271508,-0.06426039703283824,-0.10952605120428063,0.029769007236403376,0.14448225394883352,-0.020839541054719288,0.0977183020290938,0.1651688185024889,0.17737524593816767,-0.015039331588320756,0.043790140430581596,0.09722289509165746,0.03941284712117769,-0.18025268154108848,-0.059774699559688435,0.08327010009699175,0.4751169270882538,-0.14599367172249117
-0.12606488129690718,-0.09542138756667437,0.07918117852995467,-0.005586039727968225,0.05688803262754502,-0.021115043722762565,0.001961949546822243,0.08373761730819311,0.17319681683619834,0.07225986391077895,0.17500156062207045,-0.10763497972777945,0.08976078310745851,-0.056357768767292475,-0.26862468921563154,-0.06566404409167746,-0.09146846413458784,-0.14081932620740917,0.10215428709526102,-0.0503036088592479
-0.16564393802062066,-0.3550290669428196,-0.16385330933801787,0.26623858811740825,0.17302721319248843,-0.05868544850450428,0.1333866515416913,0.13005394534533066,0.3519681632614704,0.2049963937400759,0.18348347854935407,-0.11419537616061766,0.03376824482016064,0.06531215458960819,-0.1821911682562671,-0.11295555845989715,-0.0345673907274817,-0.1543128258578223,0.06950747771239804,0.04027809658903096
0.07056351313564804,-0.40702719396349196,0.16111376674326205,-0.22252646668939632,-0.341338155065133,-0.29732245848895866,0.230510699150078,-0.20418338057827676,0.450523138715669,0.3538900003122297,0.15074467622351204,-0.14657823019549623,0.3493958404456908,0.08487393837479659,-0.45257442838144624,-0.309547165584441,0.16763897761636437,0.1568491939585273,-0.279263725417923,-0.012943338765633236
0.049207865187597774,-0.33728542327163924,-0.2027011745211641,-0.34801957317606463,0.37141384245770565,-0.4521790460822385,0.09765635525615567,-0.22949255714121092,0.7135595547167743,0.12283369793297061,-0.021616737943067843,-0.2207863509011225,0.2904735672078823,0.3583171965996828,-0.21646039831792,-0.44817251105340555,-0.09502662341956318,-0.16935655315845607,-0.20121571528580642,-0.2741533486888244
-0.1669153992753514,-0.38210346467104217,-0.5169740247234611,-0.07593130260813241,0.1703079563881723,-0.663030350356626,-0.0679077647066249,-0.36338749291702793,0.711616725114599,0.4949813746389704,0.14895326827581615,-0.3782483289872439,0.5548060257046136,0.19226708096783846,-0.25855259416696896,-0.5196481344659689,-0.06624261852165024,0.4711979617878312,-0.5142830644461281,0.05306761535704838
0.11311504096432662,-0.19774524002975513,0.012632371033188297,-0.31460230705221487,-0.311732100554074,-0.4799380982547567,-0.37682845803042037,0.10986925994716232,0.3819164032794283,0.3788560041492916,-0.22590894865801428,-0.2357353511399603,0.21814329296235646,-0.22418704832161132,0.03141303627270295,-0.45408900870689317,-0.2953760781943473,-0.14469099098256105,-0.3618560118661507,-0.246361191203805
0.43281656464182655,-0.08199650728379397,0.0003598509963957654,-0.1984779463529342,-0.17661561816091503,-0.1177526811860803,0.015784635812379724,-0.09630057180417938,0.22742503134861555,-0.038917280532652566,0.15431915570819443,-0.11908514315142564,0.11740289025100858,0.0193173876725764,0.0849532195312853,-0.07720111449294413,0.2525324253811412,0.027490672911028184,-0.7048292594823291,-0.5387337253683407
0.09269260782027922,0.12639044650965012,0.27698479312554763,0.5818391899744233,-0.03310585919363969,0.11254240865965591,-0.21732463520181572,-0.10584559082857137,0.6112011951930435,-0.01142185148868231,-0.07596036435962601,-0.10018139829531346,0.18563546247459203,-0.20641171538782488,0.051884307307361766,0.5126539978434606,0.03586252457296565,-0.26322467683045786,-0.4519325686806587,-0.7787455616248196
0.27480219157292896,-0.2921089262559024,-0.3557450556103727,-0.0005693932995827864,0.04365079048279842,-0.3882350173449538,0.1642736880083645,-0.004223066428431067,-0.10465278010974917,-0.6515985625821499,0.05231674367665667,0.31741185849569276,0.5231488362672676,0.18127888748168552,0.20775075770479126,0.20728519841071644,0.16430116247985999,-0.32676490813616954,-0.5364037800854171,-0.2995884948404548
0.4093599756145728,0.03601804609999893,0.4584124275118311,0.036048070376717804,0.2892929994294371,-0.3790980225656105,-0.16985897796506705,-0.05184085862936457,0.011576989412282359,-0.14744690686126824,0.15597803409613178,0.11182552275035647,0.035233535231036284,0.13001464774753638,0.21812423518010876,0.28717157056495096,0.05828111531965175,-0.164855522866747,-0.2760529210129183,-0.8006965514113615
0.2340586934596814,0.26109242530987237,-0.09341493655452436,-0.13856115786036566,-0.2086780741083072,-0.036770449730698804,0.15463987377143482,0.1770345811341868,-0.17753907635345317,-0.32885596435432535,-0.22381130904806182,-0.023456330889201748,0.19547428345127443,-0.06812590535050318,-0.24155190132106724,0.10833811108630126,-0.1003489783535,-0.18007627538516394,-0.40473058957653146,-0.49672320529643416
-0.41743457782284615,-0.12461042272616747,-0.2419206333053923,-0.3589339543939133,0.35399433241844486,-0.09474045975606754,-0.06274631004965206,0.3553500542350959,0.24466521203158084,-0.5356758033763397,-0.21859293897402488,-0.0920391639017715,0.1716826598702239,0.27466902962696454,-0.06954163461479992,-0.16424184027939356,0.17588096044400775,-0.3365775490195211,-0.4912909074418646,-0.49399934381489363
0.054776136409613235,0.11993398758184894,-0.10356352295228012,0.2036267662944574,0.6401071329464233,-0.18818408375474802,0.3733443791003799,-0.25497816498344994,-0.1840096448599851,-0.1525894861291351,-0.3133573725861134,-0.023706482247907768,0.32264556618437445,0.03621950440964147,0.02969173287148737,-0.005806520929188991,-0.022222775144924493,0.00036375515310197815,0.05870057805824262,-0.6661972088155023
-0.1740336704418302,0.25621916920383625,-0.22933743406041776,0.03822719250905987,-0.05560418347102246,-0.32038157776091836,-0.1572123090298698,0.2406851490782275,-0.21175914205113958,-0.06890960703200773,-0.03945042381324138,-0.701475262838023,0.17871983649814485,-0.21262481467643846,-0.1370456587311781,-0.07109923088591774,-0.1627398898633629,0.09418478474087721,0.230470518427059,-0.3546638103389077
0.16112678919083726,0.23264992180596308,-0.16168224939557552,-0.1442993117634199,-0.03927233860381154,-0.27795116226037714,-0.2374467459274379,0.023014390927234455,0.09715678245179674,0.0907852267955956,0.141673370610639,-0.021763005992987076,0.20289780321288853,0.13839378686735263,-0.17185137540281054,-0.061284070259866145,-0.10702387096146944,0.03433466754881212,-0.3439842549325351,0.06261854507065114
0.13250679925393538,0.5091904740126475,0.2032923623614304,0.1293045005076362,0.6026911541133954,-0.04050336146953683,0.13407529418029498,0.01323709881245099,0.28566351174318866,-0.2131290465272427,-0.1648278298570565,0.07060192694841187,-0.1520537056300534,0.09117236989599921,0.12689318110410297,-0.36787443697398653,-0.14087860415196923,0.017995124644915768,-0.06895235748143524,-0.18605881010313557
-0.0033495533930460444,0.3226692901442331,0.1965735402705179,0.5860767607017418,0.23662421551374135,0.07544510946423237,0.5085576625816854,-0.11961565767100403,0.3451168425194603,-0.05898440904015866,-0.32273253600715723,-0.018562886699790015,0.1284421695252862,-0.1319677583811149,0.31690216001178406,0.07565227758644046,-0.19848884777715725,0.10229000476953512,-0.09565730916159855,0.1938122904892135
-0.11162769618060461,0.18445436438941434,0.08122151242187442,0.08820100693156503,0.18751958936838345,0.28088111514545067,0.043123418184554715,-0.009911737612926913,0.16089664677307355,-0.17353332507826608,0.04542727656435628,-0.22042882316171913,-0.5318202282355935,-0.2794214324688833,0.4123692432698026,-0.43973563369594726,-0.11399797278255211,0.28730880835977984,0.23681155982410834,0.013500340621339252
0.1378997609821791,0.1504277390955964,0.18119198991322044,0.11728187127562667,-0.07587068074146022,0.10960044689220923,0.1741164654036036,-0.14726065269123143,0.2929245124852271,-0.06559880667277947,0.2554799527517783,-0.20325735045299795,-0.31515303485280577,0.06702418147733541,-0.024623435348711215,-0.07094085506660916,-0.1774641961633153,-0.15748917842020033,0.07011602954688749,0.05345212602473771
0.1158063243732982,-0.12803227894572952,0.07620001748218236,-0.32244628707642975,0.021582200399252616,-0.15931319405099814,0.012329039830200525,0.1906873473151329,0.15323863991239406,0.11426061262456043,-0.07957186257396455,0.13061210947895566,0.05348620672535614,0.22484534399028827,-0.08035411378817647,0.045536352289577656,0.0023202722691818057,-0.23410891522282543,0.14112342636754044,-0.06433402768599739
0.07544985483240967,-0.01745521505749262,0.1294751434487078,-0.04572176451882152,-0.22770390209890998,-0.08570051917432846,-0.04393459699485332,0.15519589743243137,0.26873508818275954,-0.0022409964008290894,-0.1726179934411787,0.13567440813782886,-0.0008702412025020926,-0.03220150528159935,0.11649599037267307,0.06742315588295181,-0.24069396596712275,-0.03810872325378928,-0.044036769858214114,-0.07574433705320685
0.02210804034671635,-0.022841935550927926,-0.0372752705994553,0.16375459498708084,0.053226190321426475,0.0727773917394746,-0.047199533530732994,-0.04514083077406578,-0.12724854769104782,0.14899684349402592,0.161701801726925,0.042903748434142956,-0.006022600555142916,0.1650693104973802,-0.19939584812749428,0.05061202000106284,-0.07543002647226574,-0.0034388998719041414,0.13100903947279396,0.05017525526505536
0.00094852110904636,0.0886442432377673,0.2449572849543513,-0.020241769611554557,0.10971394916648147,-0.012968039031029735,-0.012571027161436009,-0.04118527803491963,-0.09237865862092917,0.14466836009179077,-0.16700559464085074,0.052502989585805016,-0.0474735553296562,0.0825118986785267,-0.07534795157079957,-0.08858079864160667,0.018966501685713486,0.009670323984397343,-0.14563785253924663,-9.161787855240991e-05
0.22609785945478234,-0.04890696373585842,0.10016330023246002,0.22633892602021427,0.05638239767171852,-0.11479359567523373,-0.00780008087632086,0.025947147704197576,-0.2847256221228034,-0.14641259023084902,-0.048485390665730384,-0.04782494399548205,-0.017762356284424984,0.042030828930751364,-0.018617578718542138,0.0882319359050635,-0.12674091056466172,0.00013724974970038138,-0.15930831906055168,-0.03291996546988697
0.1391509382786024,0.20954208681584358,0.07784971210946064,-0.025778076786950873,0.00355618161369398,-0.15741030697149339,-0.14169355695206717,-0.015994668215601138,-0.00017786285887441396,0.10643541268039207,0.024348939207901963,-0.05387773227101297,0.16284659269960342,-0.051955386188267255,-0.10216865082647202,-0.06151710119882822,0.012473478384874758,-0.03730912711206007,-0.06305394804028455,0.211734101890842
-0.14023148702604354,0.09404308715553446,-0.012782311458911982,-0.016917951113224326,-0.005032356012484835,0.0655093192278203,0.061710698146608504,0.11289260462706643,-0.004850973377163239,-0.06714897926247673,0.03583344907233193,0.06250004346273741,0.09789542740613223,-0.10422569705025354,0.04836413349145985,0.11143825018696042,0.007517047823986016,0.07811248396917714,-0.17342707438569757,0.058993423458513036
-0.005530542632827744,0.04400625110089645,0.049820029046783856,0.019717289209403993,-0.33754231101779875,-0.17161264540971474,0.08921009026774188,-0.0741852539631544,-0.06123178932592509,0.11462129116095852,-0.18369484699812372,0.0815635367627327,0.1624383982695255,-0.11715129678404135,-0.42837770583908263,-0.08756021703453336,-0.10427364652435345,0.09794126604535228,-0.03133646157319117,0.057465400826363644
0.3701009368522496,-0.03699166206106649,-0.03777063117012603,-0.07684932394142006,-0.21363128594925004,0.18485999466068542,0.17187761720372075,-0.28931784015888656,-0.08007707362728546,0.23211731360763105,-0.1489647444741746,0.23801928055866853,0.20522922796898924,0.0032441884252124896,-0.32768005982011184,-0.21601622430713083,-0.13907854893433544,-0.08127508724022675,0.2472462415233597,0.3437792218436311
0.015861758538174994,-0.11147877256791192,0.03709343120920245,0.1768240139022148,0.14731129029520437,0.00711498698058893,-0.009551601482409956,-0.28706846026595284,0.19998163609281158,0.1080993547557482,-0.0016947328329635066,-0.10264670349356136,0.01720501065496516,0.1832609316418695,-0.35740657928399727,-0.3702998426990248,-0.07522881212126058,-0.38047172987598815,0.11335506558294507,0.35736786090245193
-0.09605936179369404,0.1577338202685203,0.07016835423748748,0.11490097976567817,0.0038887982616938083,0.04707432687174717,0.18692696270911913,-0.27421542936519505,0.26736591890435085,0.4063635265343343,-0.32096470156516577,0.1947624418958511,0.10255245071930993,-0.18866151301237183,-0.14873689129020976,-0.4743579879224895,0.00460018949040533,-0.050892495012467245,0.006118140641404519,0.3524689497225708
-0.15325017308122094,0.04882288217486742,0.056562878646229095,0.12916457971337375,0.19664016502012854,-0.20369905502946864,-0.35367238774981885,0.022030661159838583,0.4874022361551053,0.27165624173482456,-0.22194845808101538,-0.06390608972726543,0.0011832266176614137,-0.40617082954093847,0.027505635763859664,-0.06275129599812378,0.10441277162527483,-0.15224812590117678,-0.011606255708213232,0.18381439530803578
-0.07800413646193752,0.24871665970965942,0.13113714446783695,-0.32353884851329573,-0.0031747001677171678,-0.5295097956517714,-0.06504731906460279,-0.02616270386966813,0.67736880193265,0.4095653133489414,-0.20491903476405599,-0.04335255540104943,0.5667720460527198,-0.1827090129633188,-0.2578379983982965,-0.11637911482833553,0.2045601381387297,-0.15360085562214418,-0.019122252016725457,0.26474423616217324
-0.06972035463239254,-0.06438545367213433,-0.06811631635127965,-0.44534555227986633,0.014366050313624526,-0.19793465809209557,-0.24352478026507987,0.10441867961312346,0.7280444930926626,0.38281742626103016,0.013265756559732382,-0.05532028101598128,0.0440843517620924,0.05398676274956589,0.010674231233581114,-0.36897952307021015,-0.07916670391893374,-0.04766741277105115,-0.118841857676959,-0.30180056084619034
0.12873256954966542,0.08939105780149996,-0.19058752528137174,-0.1032241355756099,0.17509763784674348,-0.127590707278698,-0.28215801726667594,0.2214664024002277,0.12615685490011733,-0.2075434429636285,0.08128868103515369,0.0059145173797127805,0.04607580021812819,0.054413386464291,0.7663250982056902,-0.31974119867831996,-0.5098662915111787,-0.30842115106101425,0.14032367309604002,-0.28450444049215423
0.2801749063890156,-0.2784419965449989,-0.06203387866804189,-0.2219485208527071,-0.35560580356200194,-0.19623896257216997,0.18293301251761046,0.05882614538223994,0.23783756783646562,-0.10214953663444429,-0.2666556623592641,-0.2125161021491407,0.04602153333449501,-0.09788472153158843,-0.21343880206795182,0.09906627613875843,0.2192373940550068,-0.2856216447817124,-0.10932298481313185,0.06308647286334337
-0.2746864082265204,-0.9125936239999524,0.010364590603673448,0.250199526301037,-0.24861989229629083,-0.032594112036453037,-0.5087211730198263,-0.18404078416583342,0.1004753441150028,0.30232260135491806,0.028287346196440043,0.3538447802756435,-0.10193898518569444,0.4139619131480758,-0.12834652521335174,-0.41894335874536,-0.29890681315485,-0.4804548062882144,-0.4152436977930521,-0.4254247804078449
0.059431399194653005,-0.6252942204889282,0.2882026172094952,-0.21548502140835313,-0.3341964340001501,-0.18956935717449397,0.22244080242726286,-0.13941606438838927,-0.2158696738795719,0.02702261098796203,-0.10278131739251256,-0.04440376527110954,-0.08487233061523121,0.20783052677107888,-0.39627093235482896,-0.08272466366281764,-0.10554610760676364,0.014975511280717254,-0.17895903627222348,-0.22770701610498295
0.08874742183577648,-0.4364773679858651,-0.06785451966927683,-0.2272573699352936,0.3061880174418638,-0.39321727811084634,-0.4146714517902921,-0.22863137027250172,0.033755933051079386,-0.18897251616545666,0.03464532473344949,0.1126275003976173,-0.20833280543039334,0.21618614808397646,0.02953713835863555,-0.14311956762271263,-0.18523408632657024,0.40038960746970337,-0.49703095680788806,-0.09492610204053543
0.29316406119301003,0.025367585303524953,-0.1308890407205819,0.2979084857488758,-0.17640769568235865,-0.02548291678816429,-0.05903295584407165,0.0736880585629373,0.16018972533835382,0.24497851420752073,0.35344675238756407,-0.1406167201303547,0.2664074516300315,0.38726891192744045,0.16885841521850642,0.49347757195823644,-0.1979125403825116,-0.047601066413951724,-0.2041302562666356,0.17904216123080746
0.22450995680501193,0.55812196895235,0.2064784057877465,0.01736565618633231,-0.15424334738734408,0.12708597814972517,-0.35985696006433704,-0.09772018368084923,0.3101685866301618,0.018709831170401144,0.5002403457016078,-0.3443394981035153,0.11741411476437748,0.22062675108262253,0.22143841639551978,-0.15200774667552655,0.38949529073035805,-0.35495909140601534,-0.47803074931148265,0.03124862894108624
0.06798236185114596,-0.10701133051205503,0.2180988810138024,-0.06492380939041605,0.1372498491485242,-0.2762414901114133,-0.34783328126960994,-0.41445056410877174,0.41957572948296545,-0.27831780911316717,0.19613776617719886,0.33986918435925045,-0.4155252639346897,-0.049901015378873065,0.43658066964641734,0.16083969177951152,-0.08567863399881853,-0.037846167816374364,-0.126556528587389,-0.27302620534565614
0.05828376489989695,0.42272225441305816,-0.1310808834312621,-0.14402378070126054,-0.09523727981733769,0.263620165637626,-0.20009021920065245,0.016358896111410694,0.26523728308077904,-0.06621422586069896,-0.03172225358850737,0.14124246059358359,-0.07536049699986495,0.2955716047512577,0.24921054612800622,-0.33144517316935274,-0.2646728397491172,-0.1919936188280479,-0.030941798639590408,-0.06179545960361518
-0.2565483010290333,0.17616112427592526,-0.13665480800338065,-0.1628221376482532,0.005501020719578446,0.3737143889763821,0.20985618068820322,0.02710351134945559,0.20837574641792464,-0.1870688224329198,0.14176547469630424,0.23109162079586593,0.32452361767722454,0.4978267922451307,0.24459933420032154,-0.08788943668382357,0.013945052130757104,-0.02812599950814305,-0.09430400977245701,-0.04338476840586747
0.02085977502819552,0.31814950445197415,-0.09722915204821476,-0.0016790581708423478,0.4393044650387919,-0.2999595270248738,0.21029015771693504,-0.05193920557084689,0.4462849032477279,-0.16371247149241086,0.07514374118644628,0.24576645184853324,-0.03943291064795551,0.2822246613407107,0.45534612584669304,0.0333126725047464,-0.05575965935039827,-0.0199915986640394,-0.32643063368702974,-0.352273440969247
0.13760662129501566,0.20962521936700548,0.09044206292620466,0.17999626789998951,0.4597600775692654,-0.049871243706035344,0.23041237476924792,0.06525109883548001,0.25398506847923974,-0.326089975190549,-0.07445934328481106,-0.009068189754860286,0.03617618332391685,-0.11049352400877378,0.6043695808391442,-0.06747709068433042,-0.1639147735635248,0.19445476973423825,0.33079742421823677,-0.17043451140157068
-0.3296736887924011,0.6857095114695949,0.25993921115613944,-0.3950659924775841,0.43173354862935803,0.17697518664288137,0.13659142781942857,-0.14404373239372315,0.34887834021407993,-0.3320582015855396,0.04348330548908329,-0.40069441191222915,-0.31220811629260004,-0.4308823153945019,0.4186055726890085,-0.1880411395162535,-0.06531472508048464,0.4874607662846039,-0.06495604137503225,-0.06259018500618721
0.1677784718190058,0.3820511688552888,-0.06688875589400978,-0.04882002511191703,0.14874069746374938,-0.020550896703640482,0.06103039873673815,-0.17719492487445562,0.2848889244639792,-0.14299975187256384,0.3352889241405636,-0.04875520155199653,0.08834888443597551,-0.0037402693950307053,0.1595022703561697,-0.21121325005651273,-0.028311359168964902,0.3246459955159994,0.08257775678020053,-0.01978801820860524
0.42883724698750614,-0.18372303173679186,0.027462089106601112,-0.16104878976970674,0.01569095591203573,-0.1263540029262626,0.1158647290247867,0.07199193521955845,-0.01702499887587206,0.09899439767005369,-0.04812277454773173,0.217014208911936,-0.12105832518044023,0.3617303806251152,0.10910345816903888,-0.026096617513511885,-0.03867710908236221,-0.34023054721398005,0.04881770803175139,0.03768946982909272
0.2735598772571053,0.05310571497518242,0.13734277749556262,-0.29786820798515096,0.0689769060306503,-0.0042157949305233105,-0.01623437407179551,-0.17257629032240762,-0.06161401493145714,-0.10250926589300291,-0.05124276096127482,0.03599299584329849,-0.1332345856163062,0.13476375574487054,-0.040887411942472654,0.19615256721592492,-0.030553229804771345,0.023282983208825495,-0.07942071344383936,0.054700193929728864
-0.10677600921498685,-0.010277390748979728,0.2137093160380392,0.023416084731153242,0.06578410845453914,0.055274868764729757,-0.010082234416666643,-0.026397162086155838,-0.021177536744818322,-0.039329114112544764,0.03563219354797033,0.007086896042022231,-0.09312109616488443,0.14498302547325093,-0.03800969710740616,0.05715837744099267,0.09778696475343197,0.16211832358842695,0.2538766291864649,0.10907263226227412
-0.03219628868931923,0.06890016356800331,0.19072376916694112,-0.04663121999820859,0.06267442505707924,0.016370408368038825,-0.14015875835471092,-0.0585048541075203,-0.059474545378833336,0.043062170465929264,0.006876776888107503,0.04980222281207527,-0.1344264447142117,-0.07139485131140715,0.05103996012346068,0.1391695752360842,-0.24192074562513421,-0.05327467676458299,-0.04334450076268219,-0.01549785214974176
0.21399130505321232,-0.017785617932797995,-0.06713711191076942,-0.06340848785215486,-0.11323917743971385,-0.041256459242195766,-0.007891738306388004,-0.011271445919968693,-0.08436959962022728,-0.07151124030656751,0.18917103514755032,-0.17576145695241388,0.002182258947486407,0.12012712527799467,-0.03111910969726593,0.13084135205442618,0.08829794789991988,0.23239735749713336,-0.06236174896488787,-0.09198728028477705
0.13144725057802828,-0.09185861013502937,0.07674368617181108,-0.15928733667476477,-0.1332262693459983,-0.013390365893200517,-0.14550613444027932,-0.10683400944409482,-0.20658759130802662,-0.04804067860094864,-0.002667364631662156,0.07812492986993982,0.09999889891019155,0.06546089808810976,0.24084817717839863,0.14912842055776343,0.1634270103037242,-0.0021220461380737255,0.058896811046973814,0.08441854715987214
-0.06756496591898067,0.14739751736971654,0.0104359581198394,0.2111784385611089,0.08253950082094835,0.04700607936950527,-0.31040170648603815,-0.17595518108134808,-0.1328250510981517,0.20044229055558,0.007566591210498755,-0.08223949561489508,-0.11622558849046999,-0.4015480688637206,-0.15270906652574284,0.05662414975098144,-0.11524093202241134,-0.04574722777058681,0.027000538659271548,0.06261210541820285
0.25481929109776924,-0.019558259665276138,-0.1158716789461505,0.3762996075089748,-0.18321260455692703,0.0611423088877201,0.06785352766131875,-0.22344918968302363,-0.14708586798426135,0.03743010569291684,-0.17680387027249633,-0.0015415270991430705,0.1205364380497931,-0.13031854089302436,-0.5834777276393549,-0.17939547196084996,-0.060535947569724684,-0.03569301838383323,0.2382174552431775,0.16088341264381037
0.46268666382322876,0.33176604814288085,0.02525013575601057,-0.043124310943795874,-0.1356510157081932,-0.06917985046572005,-0.01815861689963817,-0.44554539718210334,-0.23062712240920474,0.37759259747202417,-0.15303523526032892,-0.07917334866993232,0.06712767109982269,-0.12518451116029589,-0.26213941724294487,-0.11823177945114277,-0.3184434402887867,-0.15391685534678098,0.4513319934196802,0.057581975767936146
0.30966452224458274,0.30159047638447556,-0.09316918781677082,0.26774995224058395,-0.3810083912232834,-0.07656282553878009,0.15360484925523152,-0.10995181775514642,0.022420279876293962,0.37771868008346543,-0.5336425869699755,0.13665564217302495,0.21395908600198177,-0.223111172157372,-0.2961256596065964,-0.3208779271782723,-0.12427438397942753,-0.16916162335479482,-0.017053453845647878,0.18400756290672285
-0.07767503382182238,0.0022440204859594873,0.129293601171939,-0.14346187842522468,-0.11409749952648955,-0.041146278115381775,0.28427394209206513,0.18058552555539895,0.1580347125124503,0.2008909855337641,0.047850198819502025,-0.16014535580324082,0.2792385588857356,-0.1017541494772535,-0.15954124011529228,-0.4944279274012983,0.05618174453852468,-0.33250705893671445,-0.35023015690304676,-0.16851473299978298
0.3653737010277664,0.27424206214054836,0.07973890620415124,-0.280862248721578,-0.09298144435948201,-0.45046480878544987,0.04434015486674674,0.1559141238432739,0.7492724336920261,0.3587043961013642,-0.01601371177696667,-0.09910165424324464,-0.19120511720412406,-0.19522112475725686,0.16709804366646033,-0.5878181196873509,-0.4472236329932371,-0.7078729454138435,-0.054854360669346444,-0.176870992358504
0.3710812106094921,0.4453763749685344,0.06368532173744382,-0.09289423894641376,0.445354632821229,-0.40300009261297265,0.5319842411684679,-0.050819937140761474,0.3515025531194203,0.5001472250843231,-0.03149898192618552,0.4075350857771287,0.20759187412190933,0.25939322194403047,-0.3242208283851456,-0.4279012701362657,-0.0085143485474339,-0.37798045029134086,0.04677343549893653,0.21934183537960114
0.22833700644008567,-0.07533062790025798,0.3508968795117972,-0.08280094274773123,0.07683914831581845,0.04860189495132606,-0.49735155370526635,0.2374072223902561,0.040214855554000326,0.24553980097274414,-0.2080417359791719,0.6939223873286858,0.21737929505356676,0.11113241682310886,-0.08260429701800602,-0.2585621394960175,-0.08927807333106973,-0.16231396080684055,-0.029386648629934644,0.10935432681141757
0.15775227612765444,-0.5104616388164207,0.25665829621855074,0.02184452317479835,0.12025202443572831,-0.13783638861705005,-0.21495589786964633,-0.18230423083778474,0.03307432513574281,-0.3486078127695808,-0.34304799385364665,0.48693674033467726,0.12318970380247656,-0.005167848181009967,0.0001541062482536284,-0.14015025825453636,0.06412119294376593,-0.19400268068751222,-0.29443823274028413,0.12263520426081331
0.3282024634012978,-0.08616474408657357,0.50029990444209,-0.006475589822345303,0.019176159666882693,-0.15314870500042846,0.3618011754591895,0.09351922903345715,-0.05243293589528457,-0.04711360583071874,-0.07842943750090871,0.27906109186484407,0.2404635138415597,-0.13616955672922032,0.6448488011640009,-0.08456353000189794,0.21001814987017509,-0.585771926732335,0.27308339513908814,0.19688880469467981
0.2801866990282776,-0.5540737140885658,0.05110361142297664,-0.0023256931650276055,0.42130496540104617,0.06577050707903095,-0.33863610131085936,-0.0535818035372761,0.002192701076667381,0.10874455894324851,-0.3544710153547084,0.35930544005804727,0.5550426974113408,-0.3282516972952585,0.11189088691004394,-0.14272766219558666,-0.23860421047861013,-0.629298601049701,-0.2845446081744258,-0.04564493591922608
0.19667572067550979,-1.064471247351551,0.031064370269978533,-0.21465583288016454,-0.22113544887892342,0.43416708771288043,-0.014036073722709002,0.20282145895928866,0.3949500894490212,0.10286505295409812,-0.37028795348621524,0.1423031032244498,0.15623348309854765,0.08859831328736892,0.1605968234946803,0.11452553650146659,0.11955855264818889,-0.0793703862522483,0.06643872405144764,-0.11781214623721596
-0.0356084969580611,-0.22819625476669594,-0.32028323513887275,-0.052064965749761195,0.20693174386880497,0.19383586775251338,-0.02147067339331095,0.16257708566065304,0.3413847690432305,0.327978995348466,0.011252684617727255,0.6648946654003302,0.1419849489635849,0.11457698771416253,-0.21537935918604365,-0.20236402054710556,-0.14495983339446405,-0.26356888372689796,-0.12386226722407662,-0.07115019430116631
0.3674620745436136,-0.037648460427407826,0.3104742947066735,-0.03477633741879537,0.16266467603535484,0.0034537659937253127,-0.10361020973837412,0.15037501415652152,0.06490277841640368,0.21836740025306767,0.027484003503527556,0.24677217903727008,-0.11946001584221948,0.08148668787474625,-0.5654822431196447,-0.033652746235487266,-0.28860447797322925,-0.1952098743389856,-0.26095421401507973,0.021816770512479898
0.037150977527538605,0.11073070273418989,-0.3234127347902734,-0.17645128781703684,0.02346822186742226,0.3658263929536791,-0.09675032555762329,0.15996845312364646,0.22111126878949552,0.07770256818045752,0.14754391447097484,0.4337251777737285,-0.034731240514670234,0.0036015986791907524,0.055217472801446905,0.06361585836836993,-0.17393479084186259,-0.7464613759710391,-0.06596438054747526,0.40346635392087743
-0.2360103725017947,0.13248296751618877,-0.2224507789626757,-0.0244746725014255,-0.35174372736344844,0.17759720161156134,-0.10034665495815472,0.013580057309690644,0.2196107216879183,-0.03824622029463363,0.1894063904342685,1.0302858748052273,0.36584684611278917,0.0626826683557502,0.35972967396999633,0.009483634335411498,0.014968938069488331,-0.1127303771371083,-0.24841007282704664,0.5508247524134797
0.02134920073790288,0.417102569066416,0.3346203490310783,-0.1292534399399503,-0.013743683986177022,0.4311666890960242,-0.10866499887075587,0.35643620489450223,-0.20611375635215443,0.037559795160521534,0.2430651722892737,0.5301365945990913,0.28947387282560866,-0.030294685232784568,0.386276232188261,0.08137604707100196,-0.2126736946026449,0.16074689771607822,0.05837955069838341,0.13261221676050033
-0.3745086916259254,0.11814608539078689,0.17051586356004794,-0.31028953060031667,0.013265699302785356,0.031771487653923625,0.16490256522124838,0.13485485134086472,0.229378416330868,0.03139354001261111,-0.2338449643063685,0.27975959675430384,-0.08471313374398069,0.33309835876540433,0.19199017415869132,-0.12203779058141224,0.05320005803384775,-0.2892872043124323,-0.21937614392409305,0.041646672341461057
0.16706133588610947,0.17620429643118257,-0.032835441719546346,0.11535765918933094,-0.21553477063214235,-0.09069102822707403,-0.249196419222334,-0.2120621077662391,-0.33201461406816757,-0.06316255502666747,-0.3335795528062167,0.5903614955651465,-0.14613305394979836,-0.03960629525256128,0.23212022361586795,0.20883481677449958,0.19824790664671282,-0.16959023763042005,-0.14403272618718144,0.0324690414278717
0.26091398955663897,0.0649187431446798,-0.03790910701545734,-0.26728527992082746,0.1390986735167938,-0.09411726094850098,0.2898997280188022,-0.005740617860332414,-0.02361692048886654,-0.3608306506983058,0.2634850749288872,-0.21891356757477365,0.08670950367343126,-0.10912363325879534,0.24988940413878527,-0.34670594551627976,-0.41824542746177434,-0.11784426708657277,0.10911950138985396,-0.40399342535024424
0.06370865232166337,0.7734250855476504,-0.07139236623665392,-0.3053789625976897,0.05010718200415266,-0.20648703606262608,0.05524958935042991,-0.25978748214992553,-0.020792704911557183,-0.3577764907573304,-0.002470502634354281,-0.6201459598809066,0.07504843160511351,-0.19372200476162588,0.4179385971064554,-0.09332161012986523,-0.054533955547404804,0.10000671920716864,0.0033089646713466035,-0.33436261982132914
0.3643318272254241,0.09565329982828294,0.20958531541633077,-0.30973496928702904,0.031053702947723708,0.2848285635537903,0.32548334980219673,-0.2546910795629934,-0.04643596032565626,-0.1321230192847727,0.36784051660215583,-0.27864621637730386,-0.11440238375660844,0.18415870092681155,0.37175383576468446,-0.0834307822671473,-0.3546192898151157,-0.24510372760116433,0.18556198772449606,-0.14678938783528334
0.43059689731779927,-0.2101902517105648,0.05411814060067587,-0.1521115064269053,0.19842175055869982,-0.07407602639230167,-0.02184106335965822,0.008815705055101654,-0.01833282134099726,-0.21685755971289128,-0.03379232261578445,0.02816038214525529,-0.03930444761590225,0.2920992223728589,0.06493000193075431,-0.1628487553336037,-0.14589601090264565,-0.32879349752584563,0.03971667933548549,-0.08862062401532726
0.261872613284344,0.03000909216881362,0.08932049087774027,-0.14421901538317075,-0.007963275045579863,0.16721099740430698,0.15199782024067246,-0.15002791177019117,-0.34191888440642937,-0.011496342301996606,-0.008540164955658892,0.024667707712584426,0.07846993136922646,0.1188267424814837,0.12379880940838016,-0.061865810007591754,-0.072615062143511,-0.24091181900101455,0.008447801868955124,0.29663975969103096
0.08362480936756522,0.034313490349448174,0.027181011968446668,-0.06369930574229472,0.13364553350468805,-0.09656537907576977,-0.13340276273479756,0.16345559367153692,-0.10371641135458555,-0.041317739907542686,0.03163917703886512,0.018158222836274607,0.1046161297459501,0.032829813259849155,0.027421038666709335,0.013284658762236695,-0.030351098728501762,-0.03361434585984534,-0.07079946620863255,0.07057243133137865
-0.07000395626035975,-0.11744708347896216,0.11190857539423206,-0.10629150140400159,-0.04311527471279085,0.03542205267462741,0.06601844802950887,-0.06996544082835808,-0.04545542888406967,0.0761215459558417,0.052662641240258524,0.012565313735739115,-0.10694549541563879,-0.14072027791959787,-0.06068075939762867,-0.02589253758401854,0.005652826474956881,0.017537583825585425,-0.16158130932412315,0.10404154189446245
-0.041668243331056454,-0.1535557695556674,-0.017848137955460915,-0.03363729851642961,-0.041318483462392135,0.11417580120184766,-0.07028147546693668,0.05170890618660224,-0.11561781784273648,0.04258113748719376,0.1167718336019332,0.015230499443204105,-0.012576047939414362,-0.11021121233248202,0.02513936124533228,0.12137866585272666,-0.11533838983246515,-0.20208526937592347,0.04419510914796091,0.11666287441848223
-0.06304618911451493,-0.019085983571036563,-0.1996152979652461,0.12273101490722714,0.006695349727873671,0.1883753741576138,-0.047269845243128626,-0.021376976256364675,-0.027862238024500045,-0.05754446864834469,0.01962333222586209,0.00795621383416144,0.09656096080320793,0.056274906757615296,-0.11074212104039664,0.12931243855980565,-0.006528398789686354,-0.037262761055716964,0.06766016992330809,-0.16612102905152282
-0.053690029773905565,-0.0004799024765023268,-0.07422303751567008,0.32540838912710285,-0.021636043863981082,-0.05215867879166296,-0.14772167523077337,0.016071641788871386,-0.0902412393111404,0.13121632474226438,-0.12694243560739923,0.04491527517049492,0.17177551077087228,-0.09426328723157677,-0.0576965634974653,-0.09974511940756194,-0.11805036088073251,-0.00142002584128227,0.11182625187342392,0.10236590645318712
0.27840003719923906,0.21437234230872376,-0.38347502709907855,0.4501790004249899,-0.6033491775676348,-0.04207913027993018,-0.06081222292373793,-0.10464616626496978,0.0619351367700019,0.5157700254851249,-0.4215622539201651,-0.2567992531801934,0.16422458384746352,-0.2603065475763016,-0.5127104991143399,-0.27886857805977033,-0.2233410541953762,-0.1045277315651139,0.11952422075167064,0.1911510394306145
0.3722838336316747,-0.0937297159245029,-0.02710201817045287,0.165926739433767,-0.3784275708768936,-0.0725288062680084,0.17907318420736654,-0.14417975581953862,-0.08142677039082581,0.5369984826858706,-0.06728726210346297,0.18940108007143922,-0.00037314902896682907,-0.11519931942454593,-0.23724577348227052,-0.15379361511098222,0.08522188181473665,-0.29520896903530547,-0.13018269655250073,-0.3501516937219369
0.15677527403561323,-0.20790375967962396,0.32481296318639835,0.2688626448385349,-0.15348301739236223,-0.06284776858315924,-0.11270005094423838,-0.11677112820616646,-0.11070859410280046,0.4977654620306067,-0.1547794697462356,0.24117334301261703,0.0750962933953458,-0.3109206353580277,0.11384522799293428,-0.07783897138037313,0.15904269713009042,-0.21229887844209502,0.09753332066180281,-0.140792637679293
0.3897124884203456,0.32149204234008777,0.31630428663586174,0.28191417648304395,-0.1628995686405039,0.026160283222944114,0.008790417507540683,0.059885054202976865,0.25763394317428295,-0.20402416078280763,0.19809349305113733,0.12494062034848921,-0.07988718705425352,-0.38578409513083656,0.23659668575966777,-0.5643629666690337,-0.03047991494017612,-0.019095292752332044,-0.006516616230252897,0.1761093864810651
0.24616109977903414,0.16096890137513267,0.41538445088535475,-0.3191943018356807,0.18538872991926808,-0.5909792618289808,0.18642534188289778,0.3781565647062161,0.8301986592376003,0.4163118237805176,0.024889007256982718,-0.3869825052293064,0.10131122910525048,-0.16746433218350404,-0.15771992574434923,0.004854224170291581,-0.08739324383906416,-0.38271287580607377,0.10847898547276895,-0.07328035192667275
0.261839963473492,0.5231548127001522,-0.00409787325804434,0.14098207900001816,0.22183029496229514,0.07295666389055624,-0.080990814225995,0.019196208232827902,0.24570121325974742,0.31083104231997033,-0.17473615465130188,0.19321238470425098,0.331767428592612,0.14752736237376413,0.16559599315552115,-0.38465551400903863,0.10786539314267747,-0.3563988225504301,-0.020702890917044955,0.11738716496151155
-0.21856986948215992,-0.34054678157409424,-0.05311899469029174,-0.2766339409046928,0.20956607236707653,-0.2083545989265554,0.3385100489006924,0.16376304236721267,0.1554552794042076,0.26656464915252837,-0.45802102651151916,0.1180274208492059,0.4389897809581741,0.39479216796643046,0.2630113590582124,0.06697528420465304,0.0567569054139581,-0.1511359949390264,0.22667384071867488,0.3526118051330131
0.20573673519361507,0.20450618226775266,0.48962214570087603,0.17874336433358168,0.36967868080911187,-0.26756523774382024,-0.1365511543634263,0.1990875307810242,-0.028540131227706943,0.10290340323862932,0.32050185522130753,0.27201323145176515,0.2970628813445774,0.2093337165984305,0.25162031629604314,-0.17066193636895224,0.2809682578837034,-0.4275988127286401,0.1149581049775444,0.05984065903600015
0.2747405204607106,-0.05963822561072624,0.27218633526997366,-0.06266925062623346,0.2395139855474511,-0.03582384896160788,0.16269777263224386,-0.15085859840073362,-0.16567525484206996,0.16542496710952254,-0.10365542930288102,0.012021115155739382,0.24789320558500239,-0.09379569666858352,-0.45597547122627274,-0.2739403993487211,-0.04461260568509498,-0.16570452077043862,-0.08126636715104216,0.24387088231330645
-0.2817516523376312,-1.2981677333020776,-0.3829939143012244,0.6119958865574231,-0.5529870095130488,0.22624281106138017,0.06090237743873519,0.4676415298889567,-0.14447661943744486,0.41179374220870163,-0.23401599847916196,-0.0012796921412735088,0.024498426339601902,-0.3766557045534983,0.06380647733925775,-0.07946936760442193,-0.11158431863823914,-0.3390782079436702,0.2859042077109953,-0.35847814017949425
-0.31981778227458724,-0.8386452713124727,0.6074593274139172,-0.14657218174513056,-0.17025131099405064,0.2001953570206934,-0.44867416980896224,-0.10521472401107093,-0.13642542046252062,-0.05536389325518949,-0.10604192037600707,0.45791195533205864,0.4466530171009388,-0.09508084223379534,-0.07659361472457994,0.08491603858945813,-0.20210409252178943,-0.06115326008961015,0.26698618710918537,-0.16440777665196082
-0.07797057235137628,-0.10764174871705427,-0.10587699430491472,-0.1241763690772276,0.19867743241810631,0.09618334268303527,0.35469227972025125,0.34236395901670236,-0.18178287714833008,-0.3011757601745686,-0.016843573919599703,0.26427344458066854,0.2718109781050473,-0.3618059931821528,-0.5784889291418156,-0.19076889172226832,-0.03987988138474233,-0.6250737343861531,0.17328875924756676,0.06942748289329186
-0.2377847660644441,-0.086597853781497,-0.03751321593938549,0.007626332766833278,-0.01428212617300203,0.02686761651821801,-0.1386667575372677,-0.40980225112322277,-0.22158843418353455,0.10363030315470452,-0.36579169520724514,0.4889844828530918,-0.13102118209556768,-0.10544608155593983,-0.26438311872654124,0.11415708514792014,-0.2985643489922595,0.024786244474172135,0.3320238215957816,-0.2686879931038929
-0.16026140562223143,0.3453424864030331,-0.34830449664166524,0.015793388568486673,0.5865738322379455,0.1172871676060217,-0.0745405298868165,-0.10157899929135308,-0.047839599961543446,0.11080686157370556,-0.25629673700007805,0.3655590131574471,-0.15243014261893698,-0.33219328689486244,-0.27530963125957497,-0.08124707617998748,-0.49806891408168885,0.08844822863987684,-0.3237961456772031,0.1425445694817518
0.24353254991150194,0.20298754125854254,0.18257739992620692,0.22237168417565084,-0.02614306025293517,0.07576596776098986,0.1727013243691414,0.17445556924493988,0.09175946596301862,-0.18614857376243463,-0.26612717452170476,0.261230540199078,0.03466031190537354,0.392912999143099,0.09832486478085307,-0.18003592114110734,-0.2696683055216498,-0.22829718409857389,0.23669562523726292,-0.14129419729385975
0.24496108108046777,0.20485216643558904,-0.007811234406213135,0.40157830866982974,0.3321017987812426,-0.1176601022580925,0.17158048886480237,-0.24932981881717003,-0.23422854513164196,0.07513327065351517,-0.04559487866761524,0.18215624962552068,-0.024016933954516134,-0.026651487583931755,0.5829760585312743,0.4889440955278925,-0.12208697150136766,0.13437262286416418,0.1169897538896977,-0.007097629273753935
0.30431532541213224,0.43584642695139697,-0.18998362844708147,-0.03608504524658763,0.6885211916723999,-0.058083195798317985,-0.3724186342534489,-0.007667662677776851,-0.08591824997055648,0.18513532305948113,-0.26108612914980966,0.42754260389567345,-0.05513570413102831,0.3621653594112947,-0.3106708140449507,-0.042551785394672886,0.057844526231420175,0.29321271456380643,0.178406143192336,0.3338908926343172
0.08137273407771652,0.01770857067857266,0.19882489362816244,-0.12573678599035018,0.1318706115939705,0.24046273995022796,-0.38542583349528037,0.4002301262265965,-0.4310478605263943,0.2721101625213495,0.1001604840769812,0.19060670530588902,-0.12128231402730334,0.17140704972179685,0.22286721092031603,0.28843690875002187,0.3059342082386313,-0.04124111709734668,-0.08037719577727348,0.10827568486561154
0.04239123895702912,0.19743908544658648,-0.044295840837953106,-0.19985739460928634,0.20927175570451806,0.2416816114021085,-0.18642811890876523,0.035774140312801274,-0.16307092963068887,0.15765335427662439,0.29699666694270177,0.08155604820131482,-0.23778816508753492,0.3774158192301214,0.3733174849944892,0.14204902905372055,0.03404615695905918,0.07936608789633984,0.23581774380714232,-0.4104618426938346
0.2873204341589217,0.17427995020372394,-0.26486011721159386,-0.11948184566506134,-0.19466368373808535,-0.03705745541374682,0.47410112174492247,-0.17426255293035295,0.3333725545434911,-0.1908404238266513,-0.12405682598438494,0.2953460407904757,-0.4392917847585745,0.2763192747321744,0.34855296996587815,-0.13766682807873448,-0.15383638105566108,0.16180023103927108,0.16544295124567177,-0.33050244543153473
0.4158906379511465,-0.03406036741525675,0.0203373471043294,-0.18124573502125943,0.4003082844919088,-0.05708909033942913,0.5545703725055935,-0.16277356804558207,0.36743179784917124,-0.19036261389461648,-0.027478510968578864,-0.2001987477888681,-0.16603798803142084,0.0433850302052947,0.7037739148285391,-0.293089974668404,-0.18526275103355985,-0.38394707110975124,0.2761074381812518,-0.26602514786610465
0.26894927189709406,0.10197767549183168,0.08022268384336259,-0.18492129472483873,0.12363540986571638,0.11327331237396773,0.34135347156723433,-0.2445045098379937,0.0470534755469176,-0.12033209554124912,0.2672455070577009,-0.38471533739550495,-0.11612660403505655,0.22274830680944763,0.08200981925138599,0.14301988329125742,-0.3386889754269102,-0.2128517599522047,-0.1072785484476677,-0.23427780257142763
0.2603547222066885,-0.12456697259086545,0.09556483302294498,-0.1512271939744476,0.22277190811907727,-0.10101907939984248,-0.06780819846772118,-0.13675801380137412,-0.029147536981369297,-0.02291856402231944,0.002585844196441405,-0.10650510529233292,0.039080888947389696,0.013974549426716398,-0.12795247318116257,-0.04607959003662241,-0.07058585342827174,0.05639333642892052,-0.023081379627026048,0.11539275807659695
-0.01684735753524737,-0.08377560241669384,0.02860917552953421,0.03489094577380839,-0.08199085354831603,-0.1124506836673071,-0.008872779178468744,0.049885200651478584,0.020609602804011258,0.0009098465378394099,0.028641510724525667,-0.021016945637875054,0.035743097288666224,-0.08541289019968511,0.0009907707857596075,-0.015522621379711173,-0.10268683630276008,0.05202296154132346,-0.13815959081727244,-0.00842802414521092
-0.06562394313290952,0.05782470944422253,0.01593166833406165,-0.038438321521419724,-0.04687712498820745,-0.023363902831112577,-0.0935765495414431,-0.08517472465764776,0.09815498433505862,0.019523701075732182,0.042113222644432846,0.014947989245132992,0.00503166962991911,0.15990895916999134,0.06907101025177008,-0.05963804944108867,0.11733944959668006,0.02119927511144623,0.0061091269336408524,-0.08571885438456325
-0.13642582089594557,0.04429930079140964,0.16408970036702122,-0.12456620242719618,-0.028718081155892125,0.11896215457290475,0.09839888895239757,-0.0672732994321469,0.005351176671797587,-0.13712331546961082,-0.0360774497241611,0.11633432511330292,0.06666502068036445,0.0888468480015444,-0.013592252214288976,0.06689156394790398,0.029407190600794754,-0.05841243046786253,0.1662076599342855,0.12663615266491043
0.10559535995099247,-0.032996976308299744,-0.07677674186568001,0.008745761524328132,-0.13336716991788847,-0.024363418815287727,0.06811593753514869,-0.06475438933461976,-0.054382809787322274,-0.01377641022035914,-0.015523718186603799,0.040253886739102254,-0.01878191725689895,-0.04021173777634471,0.11242360744001544,-0.11816616062352917,-0.08759184944520701,-0.0500756007072639,-0.13375205640620366,-0.017253568510714808
0.051328233830574395,0.03875921100541858,-0.06741143612119219,0.20449432059876022,-0.1748660403524448,0.029876656703952217,-0.26871928035513054,-0.030431237023921115,-0.012126562944205785,0.14185592499951402,-0.04210088141271011,0.0012911358400045285,0.18298726273005542,-0.13804108637535928,-0.12412249948631282,-0.12184946068800806,-0.017033614480511085,-0.09529545705485647,0.10250070232322837,0.3210271336749152
0.3042482258537985,0.09740124755649904,0.17513368030071028,-0.06252039623353157,-0.38859735392769196,0.040122288618110534,-0.31867235055371296,0.03515265171330539,0.1585835897386443,0.35536447360148005,-0.44323658215034906,0.42501674373211307,0.02917365551748381,0.08157861180594657,-0.5915210468962467,-0.10189855455557849,-0.283922764500506,-0.2270742874485898,0.3243329406971975,0.25727764886122184
0.36370734330414434,-0.002092420459254112,-0.042415035003992095,0.06736938660518182,-0.36144802889851074,-0.12274285753606937,0.23853464737771954,0.23108456612712866,-0.2066923827415703,0.2589984945444873,-0.04607180589408831,0.1810042458372309,-0.10056634562404776,-0.33994451683465077,0.07579822272186136,0.04382962796316972,0.2140030180095218,-0.25492406893433855,0.11455820232864725,-0.2019134330868497
0.12809418939627176,-0.038057436027086784,0.11374690635386103,-0.13055153060564614,-0.1223541952848695,-0.014126472121987216,0.33860027432753337,0.4331635357491914,-0.22864985895912412,-0.12131822182023268,0.05783294301083407,0.062020075368203476,-0.5213685501505154,0.2972214182690062,-0.11551176557738532,-0.14222170738595552,0.3671149722229095,-0.22134227057775607,0.1115438780860395,0.028077061983795473
0.4654644699050194,0.5383212819055092,-0.2116431626954988,-0.08753942243963589,-0.3608207888613475,0.15479086900696185,0.021330089579209007,0.12719808664431104,-0.0569770431707497,0.18023925638005642,-0.41536034763138246,0.1831798965119348,0.1319012192240752,-0.253011080148873,0.010861695441884386,-0.15137622489175115,0.1176143730885135,-0.28919357935657736,0.04103835068251848,0.21123383058578266
0.1533281620360395,0.25915250063866085,-0.19960455155279078,-0.14306108242452775,0.37372949709589975,-0.49927937907255443,-0.11923685542903144,0.10483737160482798,0.0034907710692077916,0.2745640685774779,-0.17901045108199326,0.5017052800365198,0.2596673023358647,0.0652589128303646,0.18450062199196168,0.12483688983809967,-0.054220218898441336,-0.33282765528424985,-0.08856520591722777,0.2661820933980727
0.18826329657906538,0.3867921276159909,-0.03605261684675569,-0.016947037475098823,-0.3031291840053316,0.06997968410168681,0.3033293724525652,0.19740181688610292,-0.24486500180146564,0.13949883264835716,0.054474325813981386,0.3697391818026429,0.04845515015127729,-0.022689753862949632,0.6620328205667406,-0.2284346630097876,0.023014624664192886,-0.7061454413715803,0.09740071374902,0.41190447996000645
0.24919040501850084,0.8773959331853417,0.19284801048027275,-0.1554836341392944,0.10292264259705444,-0.29825667977952525,-0.14101444295254073,-0.03573648070804693,0.15595585074204327,0.45085489164366177,-0.11809510452546967,0.12769960619181014,0.07663512851126796,-0.11714945539287323,-0.21477009646732337,-0.12753488006064595,-0.012250411004332992,-0.2970738840108747,-0.08924528418478589,-0.12370618984582632
0.29520450607815896,0.005988748536418446,-0.09124424009739145,-0.3366069155315735,0.219844972629087,-0.01581787472597155,0.25127897937380944,-0.05442411127649912,0.015191876590564547,0.38997844967516093,-0.37223964919148045,0.6577006540873365,0.21767844998610641,0.21469913672348517,0.45784295810881354,-0.5781744985854511,-0.02264107792182185,0.09385496798592145,0.061938309026203967,-0.08648125848729342
0.525281227743479,-0.0189969204129798,0.12890633326611423,0.053713673130833264,0.08336409760257531,0.09174240366147221,-0.4731644688496,0.08166379297843426,-0.4134915513644258,0.63949791516286,-0.3785288639239614,0.27740536497468965,-0.14500334862171568,-0.12642090200852973,0.6702210109697292,-0.32930479540911817,0.3540767687795359,-0.220312466645336,0.05046137315045935,-0.060562985083055625
0.4905324971736346,-0.5931882932132039,0.8907902853629651,-0.08690133473562252,-0.08891596605149456,0.06263874721440954,0.5083505075988514,-0.1422042842545209,0.18790824550537688,0.35640792934066223,-0.33482196880248416,-0.0373481465807417,-0.15240752637632282,0.12063351526392622,-0.2676099496309256,-0.20083966475626494,0.22383247146679064,0.2249846594234064,0.00886081127311977,-0.02758460970120616
0.3114289806950358,-0.5968743115075693,0.017497711382288693,-0.12775420463024223,-0.36872472540098633,-0.10735107680678853,-0.14372490588963846,0.04418454521512656,-0.326349471397645,0.343344271834268,-0.2504546247754416,0.3093422391953525,0.011322330423049011,0.13187240315559348,-0.053359894755347935,0.14369121117710124,0.41046269152871645,-0.6063112938697898,0.1536150382569665,0.44133439564468857
0.17170975143631675,-0.46305326978809774,0.03406476750923323,0.13045152431654033,0.43176574723942934,0.07804030355900095,-0.4450556604312952,-0.07302872279352854,-0.4296864826572713,-0.24112487463571242,0.11660225653780351,-0.04073513304847338,0.582619087120564,0.17578011756282486,-0.3871061991738648,0.18017103017232872,0.04698204812775222,-0.42300887424686817,0.08636141000159836,0.042076843764691584
-0.03355066442905532,0.2777536180710679,0.16450965159704475,0.23849655027023012,-0.2381227294202152,-0.29831428906853613,-0.36245893518190486,0.9159104038365347,0.040877993861812165,-0.19841687204852443,-0.0911771186290627,0.9780295418312916,0.11388646793481712,0.30903490684888213,-0.391455552876039,-0.09437046442618921,-0.3552073137704219,-0.688474280573221,0.1600476815145327,-0.38756497147883917
-0.22051840931543462,0.3686316326986192,0.08494120617787886,-0.22031040410865294,0.08484099709958384,-0.3169648476072483,-0.08672558620586804,0.2704622379238174,-0.3328382132336928,-0.12712247404714286,0.1751374917249008,0.07918637574885373,0.06955757531263487,0.02266355141609656,0.4478262364381998,0.05795572805932914,-0.5359746540971634,0.02197176068380384,-0.029697386639708206,0.16522287568968297
0.35507229088605746,0.15765219542179948,-0.15791083384641877,0.31999165856960865,0.13471671754693965,0.09375704351371943,-0.14751633913125242,-0.0008984754217550525,-0.2639219972815306,0.13675275084593758,-0.34237327286669744,0.38772930911144077,0.3777237580571647,0.016751338058626317,0.39597402386594466,0.1253859220261856,-0.2567623686003232,-0.4878312526146169,0.11323544494615782,0.5623245699369825
